svm_type c_svc
kernel_type rbf
gamma 8
nr_class 4
total_sv 1935
rho 46.894 -242.73 124.213 -207.329 161 355.957
label 1 2 3 4
nr_sv 426 542 258 709
SV
32768 0 32768 2:0.81852127 4:0.57447622 
32768 32768 32768 1:0.013768486 2:0.2909522 3:0.93457734 4:0.20426074 
31342.06869708762 0 32768 1:0.0034530738 2:0.70320572 3:0.51139359 4:0.49392954 
32768 32768 32768 2:0.3937646 3:0.87643731 4:0.27714091 
32768 0 32768 1:0.014863595 2:0.059152297 3:0.99726931 4:0.041641336 
32768 0 32768 2:0.79792881 3:0.21818822 4:0.561875 
32768 0 32768 1:0.0061494306 2:0.73290122 3:0.44355702 4:0.51582473 
32768 0 32768 1:0.063130145 2:0.44002345 3:0.84056494 4:0.30958767 
32768 32768 32768 1:0.0059025405 2:0.31347982 3:0.9236232 4:0.22048977 
0 0 30338.44547458163 1:0.028336724 2:0.79075068 3:0.25430448 4:0.55609318 
4402.130425821984 0 32768 1:0.017540422 2:0.78442398 3:0.28294775 4:0.55164474 
7164.20209890591 0 32768 1:0.019376194 2:0.81693444 3:0.044179878 4:0.57470934 
32768 0 32768 1:0.0064867304 2:0.79927632 3:0.21202436 4:0.56228192 
32768 15405.6461605655 32768 1:0.014480617 2:0.57664567 3:0.70890669 4:0.40585883 
32768 0 32768 1:-0.00020284557 2:0.69774365 3:0.5214436 4:0.49117241 
32768 0 32768 1:-0.0071666761 2:0.80965864 3:0.13787834 4:0.57043061 
32768 0 32768 1:-0.0053054502 2:0.81558968 3:0.068035646 4:0.57459245 
32768 26252.59664313681 32768 1:-0.010274781 2:0.61047801 3:0.66543046 4:0.42943373 
32768 0 32768 1:-0.0041669808 2:0.7532476 3:0.39281419 4:0.52753929 
32768 32768 32768 1:-0.0047915419 2:0.72229792 3:0.48135261 4:0.49655052 
32768 32768 32768 1:-0.0044281435 2:0.14828 3:0.9837967 4:0.10068511 
32768 0 32768 1:0.0053051808 2:0.072047062 3:0.99618875 4:0.048877955 
32768 0 32768 1:0.00014015855 2:0.025996284 3:0.99950802 4:0.017546946 
32768 0 32768 1:-0.0066985401 2:0.10969744 3:0.99120737 4:0.073685448 
32768 32768 32768 1:-0.00017971316 2:0.1658766 3:0.97991104 4:0.11072159 
32768 0 32768 1:0.0052317053 2:0.10556738 3:0.99192035 4:0.070158216 
32768 0 32768 1:-0.0022479626 2:0.1101657 3:0.99122061 4:0.073076513 
32768 0 32768 1:0.001906733 2:0.005138846 3:0.99997943 4:0.0033301254 
32768 32768 32768 1:-0.0030490345 2:0.012471398 3:0.99988429 4:0.0081595541 
26635.53818424371 0 32768 1:-0.048307416 2:0.16983777 3:0.97828203 4:0.10856244 
0 0 32768 1:-0.0068666888 2:0.15068699 3:0.98389176 4:0.095933721 
32768 0 32768 1:-0.00098302486 2:0.039571145 3:0.99889928 4:0.025167278 
32768 0 32768 1:0.0010337225 2:0.015843302 3:0.99982341 4:0.010053207 
32768 32768 32768 1:-0.012339056 2:0.031817853 3:0.99921504 4:0.020116401 
32768 0 32768 1:0.0054338321 2:0.040183873 3:0.99885507 4:0.025382834 
32768 0 32768 1:0.036185361 2:0.25793992 3:0.95175838 4:0.1622147 
32768 0 32768 1:0.046388829 2:0.40851911 3:0.87490478 4:0.25593326 
20347.67928197158 0 12259.19840128161 1:0.031466414 2:0.82544832 3:0.23128835 4:0.51395587 
13342.98903153723 0 0 1:0.013971173 2:0.80198907 3:0.32691992 4:0.49974164 
0 0 32768 1:0.031116919 2:0.42121412 3:0.86756889 4:0.26255403 
0 0 32768 1:0.027205322 2:0.43047311 3:0.86154841 4:0.2677445 
0 0 27092.25962343332 1:0.017800108 2:0.76549748 3:0.43183644 4:0.47666976 
32768 0 32768 1:0.019001369 2:0.22956117 3:0.96258142 4:0.14275022 
0 0 32768 1:-0.0038149435 2:0.093757435 3:0.99388311 4:0.058235356 
0 0 32768 1:-0.014422848 2:0.20238295 3:0.97110292 4:0.12566714 
0 0 32768 1:-0.0047983278 2:0.22028696 3:0.96584296 4:0.13637451 
32768 0 0 1:0.0396246 2:0.5519097 3:0.75843549 4:0.34438521 
0 0 32768 1:0.0028342251 2:0.20009921 3:0.97180333 4:0.12470188 
32768 0 0 1:0.012339856 2:0.83867764 3:0.15255942 4:0.52267884 
32768 0 0 1:0.011624719 2:0.84736487 3:0.05481231 4:0.52804663 
32768 0 0 1:-0.00064434348 2:0.84209247 3:0.077280158 4:0.53376739 
0 0 32768 1:-0.0083985515 2:0.12777751 3:0.98854989 4:0.079821652 
32768 0 0 1:-0.0015086252 2:0.84639586 3:0.056519574 4:0.52954444 
32768 0 32768 1:-0.00066870971 2:0.84742779 3:0.0085506072 4:0.5308414 
0 0 32768 1:-0.00077769907 2:0.20713536 3:0.96965065 4:0.12989206 
32768 0 0 1:-0.00090158647 2:0.84451642 3:0.079489439 4:0.52959667 
32768 0 0 1:-0.004376116 2:0.84276663 3:0.102577 4:0.52839683 
2517.298476840643 0 0 1:-0.0052097665 2:0.83869352 3:0.14209567 4:0.52571366 
32768 0 0 1:-0.0088173729 2:0.79269122 3:0.35271955 4:0.49714365 
32768 0 0 2:0.84591225 3:0.058636232 4:0.53008892 
0 0 32768 1:-0.0075403373 2:0.20545326 3:0.97013631 4:0.12871537 
16561.61318709849 0 0 1:4.4814728e-005 2:0.83799535 3:0.14833641 4:0.52512865 
32768 0 0 1:0.00011140411 2:0.84713745 3:0.018711648 4:0.53104426 
32768 0 0 1:0.0015604732 2:0.8434955 3:0.094570861 4:0.5287431 
32768 0 0 1:-0.0015028002 2:0.84205128 3:0.10725389 4:0.52862462 
32768 0 0 1:-0.00096908734 2:0.84627645 3:0.039682398 4:0.53126316 
32768 0 0 1:0.0003105114 2:0.84304727 3:0.095750106 4:0.52924769 
32768 0 0 1:0.00019461713 2:0.84668262 3:0.028184304 4:0.53135125 
32768 0 0 1:-0.0015452503 2:0.84573456 3:0.052352134 4:0.53102722 
32768 0 32768 2:0.84678428 4:0.53193644 
32768 0 0 1:-0.0018113996 2:0.84259353 3:0.096644142 4:0.52980447 
32768 0 30414.78384475454 2:0.8175935 4:0.57579586 
32768 32768 32768 2:0.0031607028 3:0.99999253 4:0.0022252185 
32768 0 32768 1:0.005085985 2:0.6748881 3:0.56473229 4:0.47495013 
32768 32768 32768 1:0.0095411849 2:0.43998268 3:0.84292554 4:0.30951695 
0 0 32768 1:0.0094756487 2:0.69298597 3:0.53122541 4:0.48731943 
32768 0 32768 1:0.0078705948 2:0.79412145 3:0.24069381 4:0.55801045 
32768 0 32768 1:0.0068382222 2:0.80786635 3:0.15936169 4:0.5673703 
32768 0 32768 1:0.0046775512 2:0.80198951 3:0.19997206 4:0.56285178 
32768 0 32768 1:0.0027747535 2:0.81526115 3:0.090945193 4:0.57190081 
32768 32768 32768 1:0.0066994162 2:0.56443411 3:0.72441977 4:0.39570854 
32768 24370.8318182643 32768 1:0.0020915601 2:0.00065320881 3:0.99999751 4:0.00041993888 
32768 32768 32768 1:7.1405301e-005 2:0.00065775795 3:0.99999969 4:0.00042259274 
32768 0 32768 1:0.0016724949 2:0.17978437 3:0.97688658 4:0.11561744 
0 0 32768 1:-0.0026487693 2:0.65914935 3:0.62193015 4:0.42275053 
0 0 8072.609545334113 1:-0.005286666 2:0.8124693 3:0.26259338 4:0.52049055 
0 0 32768 1:-0.0056744491 2:0.81345454 3:0.258058 4:0.52121548 
0 23955.61253347701 32768 1:4.0114833e-006 2:0.60293727 3:0.69818588 4:0.38600923 
32768 0 0 2:0.83956424 3:0.087647259 4:0.5361435 
0 0 32768 1:-0.007784488 2:0.19784559 3:0.97202213 4:0.12637049 
0 0 32768 1:-0.0064555312 2:0.76673293 3:0.41529432 4:0.4894993 
0 0 32768 1:0.0051336183 2:0.63874921 3:0.65219707 4:0.40818141 
0 0 32768 1:-0.014228243 2:0.51940465 3:0.78732692 4:0.33186245 
0 0 32768 1:-0.016213255 2:0.38794564 3:0.88748495 4:0.24820511 
0 0 15615.7453496794 1:-0.0017478947 2:0.34890939 3:0.91019707 4:0.2231602 
0 0 32768 1:-0.015182693 2:0.43598012 3:0.85545441 4:0.27908524 
0 0 32768 1:-0.0015440646 2:0.33879432 3:0.91549955 4:0.21697142 
0 0 32768 1:-0.0096886812 2:0.82958842 3:0.17089347 4:0.5314928 
0 0 32768 1:-0.0081813755 2:0.83193804 3:0.15481047 4:0.53277188 
32768 0 32768 1:-0.0085319246 2:0.78715837 3:0.355282 4:0.50406708 
0 0 32768 1:0.0002344679 2:0.7623524 3:0.42479517 4:0.48822928 
0 0 32768 1:-0.0024529004 2:0.84105269 3:0.044734177 4:0.53909481 
32768 0 32768 1:-0.00057319277 2:0.84181325 3:0.017953191 4:0.53946993 
0 0 32768 1:0.013108672 2:0.57612648 3:0.72922661 4:0.36896475 
0 0 32768 1:-0.00035190116 2:0.55517641 3:0.75203345 4:0.35528118 
32768 0 32768 1:0.001099335 2:0.12299731 3:0.98927497 4:0.07877494 
0 0 32768 1:0.015247246 2:0.5887028 3:0.71485902 4:0.3770585 
0 21472.70115118115 32768 1:-0.014127282 2:0.34948311 3:0.90963021 4:0.22413131 
32768 0 32768 1:-0.0019520061 2:0.036720186 3:0.99904984 4:0.023393188 
32768 0 32768 1:0.0040993598 2:0.061507724 3:0.9973285 4:0.03919004 
0 0 32768 1:-0.020780995 2:0.62710455 3:0.66840746 4:0.39942397 
4630.073611331641 0 13238.71067075819 1:-0.035186392 2:0.73705261 3:0.48487193 4:0.46948331 
0 0 32768 1:-0.0052402882 2:0.63875059 3:0.65310207 4:0.40672829 
27439.82982683247 0 20754.65791249627 1:-0.015024148 2:0.8119379 3:0.26910684 4:0.51779594 
0 0 3708.845326920434 1:0.010942468 2:0.59626035 3:0.70700599 4:0.38012679 
0 0 32768 1:-0.028486001 2:0.23545761 3:0.9597823 4:0.15022051 
0 0 32768 1:-0.0021006674 2:0.16342164 3:0.98103052 4:0.10425004 
0 0 32768 1:-0.032402563 2:0.24056642 3:0.95788967 4:0.15337942 
32768 0 32768 2:0.82095414 4:0.57099413 
32768 0 32768 1:0.012159836 2:0.0015909349 3:0.99992419 4:0.0011046709 
32768 32768 32768 1:-2.1947326e-005 2:0.0015922921 3:0.99999812 4:0.0011047232 
32768 32768 32768 1:-0.0019955295 2:0.59231858 3:0.69301702 4:0.4109527 
0 32768 32768 1:-0.0014415761 2:0.70449904 3:0.51480307 4:0.48852516 
32768 32768 32768 1:-0.0040901142 2:0.62586966 3:0.64798977 4:0.43402731 
32768 32768 32768 1:-0.0010578261 2:0.79813432 3:0.24221626 4:0.55164461 
32768 32768 32768 2:0.82276712 4:0.56837863 
32768 32768 32768 1:-0.0049033489 2:0.34284003 3:0.90905065 4:0.23677749 
32768 32768 32768 1:-0.0044818002 2:0.54662103 3:0.74741098 4:0.37757408 
32768 32768 32768 1:-0.0054459198 2:0.7721515 3:0.34557024 4:0.53322941 
32768 32768 32768 1:-0.00089846446 2:0.7922834 3:0.27016691 4:0.54707957 
32768 32768 32768 1:-0.0054783575 2:0.79631143 3:0.25241609 4:0.54967647 
32768 32768 32768 1:-0.0024961666 2:0.79729222 3:0.24800505 4:0.55028391 
0 32768 32768 1:-0.0008199439 2:0.82153101 3:0.060874 4:0.5669043 
0 32768 32768 1:-0.0029510914 2:0.82242194 3:0.044681785 4:0.56711285 
32768 32768 32768 1:-0.0051607636 2:0.81692483 3:0.12686837 4:0.56259364 
32768 32768 32768 1:-0.0070246419 2:0.33577319 3:0.91318252 4:0.23087813 
32768 32768 32768 1:-0.001560888 2:0.45615975 3:0.83296625 4:0.31318216 
0 32768 32768 1:-0.0021998115 2:0.69060288 3:0.54716666 4:0.47293917 
32768 32768 32768 1:-0.00079150226 2:0.47495681 3:0.81786658 4:0.32482251 
32768 32768 32768 1:-0.00053092184 2:0.62116153 3:0.66041228 4:0.42191668 
3768.909861369777 32768 32768 2:0.73856656 3:0.45002251 4:0.50199521 
0 32768 32768 1:0.0032886122 2:0.36018926 3:0.90139326 4:0.24029789 
32768 0 32768 1:0.016144078 2:0.22733691 3:0.96208755 4:0.14981601 
0 2462.114173915735 32768 1:0.01284235 2:0.40341196 3:0.87567427 4:0.26511968 
0 32636.83359125201 32768 1:0.010142579 2:0.46118988 3:0.83441482 4:0.30158403 
10569.93094707172 0 32768 1:0.0058034672 2:0.27611246 3:0.94422631 4:0.1793458 
0 0 32768 1:-0.00040684334 2:0.30413846 3:0.93229955 4:0.19574773 
32768 0 32768 1:0.011119812 2:0.12041355 3:0.9896116 4:0.077754857 
1978.516085027742 0 32768 1:0.0017560193 2:0.15464561 3:0.9829716 4:0.099239511 
0 0 32768 1:-0.0065215786 2:0.3095589 3:0.93018722 4:0.19718646 
29236.7104432084 0 32768 1:0.0082657515 2:0.093383697 3:0.99387387 4:0.058531096 
27596.33127303209 0 32768 1:0.00019441497 2:0.06877162 3:0.9967275 4:0.042481859 
32768 0 32768 1:0.0018657872 2:0.007084974 3:0.99996392 4:0.0042986714 
32768 0 32768 1:0.00019587095 2:0.022330703 3:0.99966002 4:0.013459026 
0 0 32768 1:0.00044744927 2:0.17936525 3:0.97782546 4:0.10809845 
0 0 32768 1:-0.0021735743 2:0.17488862 3:0.9788915 4:0.10573876 
32768 0 0 2:0.85907637 4:0.51184743 
32768 0 32768 1:0.012493448 2:0.039342811 3:0.99886079 4:0.023941199 
32768 0 32768 1:0.0048027435 2:0.046417252 3:0.99853342 4:0.027447697 
0 0 792.4079298820432 1:0.015491136 2:0.23463322 3:0.96193975 4:0.13920916 
32768 0 0 1:0.0019197843 2:0.57399759 3:0.74528185 4:0.33923156 
13172.59026836116 0 0 1:-0.0032563548 2:0.72556981 3:0.53854006 4:0.42838354 
0 0 3564.729248505163 1:-0.0051036752 2:0.23824675 3:0.96090899 4:0.14094809 
0 0 32768 1:-0.0021505715 2:0.17252017 3:0.97970223 4:0.10205735 
32768 0 0 1:-0.0013897994 2:0.80011878 3:0.3691439 4:0.472801 
32768 0 0 1:0.00083812704 2:0.83863886 3:0.22138516 4:0.49766733 
21154.33441238829 0 0 1:0.0064612527 2:0.77225943 3:0.44042863 4:0.45781682 
32768 0 0 1:5.294135e-005 2:0.64521581 3:0.66146359 4:0.382312 
32768 0 0 1:-0.0021908324 2:0.81652165 3:0.3150311 4:0.48377992 
32768 0 0 1:0.0019505177 2:0.85686252 3:0.09268063 4:0.50714211 
32768 0 0 1:0.010733497 2:0.79481926 3:0.38353186 4:0.47016002 
32768 0 0 1:0.0023720148 2:0.78738053 3:0.40323182 4:0.4662943 
32768 0 0 1:0.0054337405 2:0.84699159 3:0.17816278 4:0.50083304 
5126.16726930506 0 0 1:-0.0026920048 2:0.80629389 3:0.35011863 4:0.47675974 
32768 0 0 1:0.00046550235 2:0.8550257 3:0.115388 4:0.50558525 
32768 0 0 1:0.00191732 2:0.84842557 3:0.16835094 4:0.50182501 
32768 0 0 1:0.0012877185 2:0.85274936 3:0.13537641 4:0.50447012 
9933.450391911591 0 0 1:0.0028228639 2:0.85856517 3:0.069756658 4:0.50792902 
32768 0 0 2:0.86022974 3:0.031897393 4:0.50890799 
32768 0 0 1:-0.0037418384 2:0.64014521 3:0.6684449 4:0.37865753 
32768 0 0 1:-0.0021904266 2:0.8189935 3:0.30757945 4:0.48439626 
32768 0 0 2:0.84064323 3:0.21520529 4:0.49699663 
32768 0 0 1:-0.0018355556 2:0.72167167 3:0.54516013 4:0.42659942 
32768 0 0 1:9.5355194e-005 2:0.85629232 3:0.10278089 4:0.50616158 
32768 0 0 1:-0.0001784786 2:0.81351953 3:0.3271056 4:0.48082 
32768 0 0 1:-0.00077888071 2:0.85644689 3:0.10118651 4:0.50622071 
4269.842646091123 0 0 1:-1.9717538e-005 2:0.86042215 3:0.034175059 4:0.50843465 
32768 0 0 1:0.0018727383 2:0.85372975 3:0.12912686 4:0.50444847 
32134.03329178711 0 0 1:-0.0014596506 2:0.84864198 3:0.16975742 4:0.50098611 
32768 0 0 2:0.84803115 3:0.173789 4:0.50064014 
32768 0 0 1:-0.0069238271 2:0.69148618 3:0.59585484 4:0.40835761 
24416.3821665182 0 0 1:-0.0019456807 2:0.58870349 3:0.72970516 4:0.34778556 
32768 0 0 1:-0.00047578252 2:0.85601145 3:0.10637016 4:0.50589482 
32768 0 0 1:-0.00063587131 2:0.85250522 3:0.13811261 4:0.50414219 
32768 32768 32768 2:0.83103233 4:0.55622412 
32768 0 32768 1:0.017227074 2:0.0030921935 3:0.99984467 4:0.0020722737 
32768 32768 32768 1:-4.2511134e-006 2:0.003092953 3:0.99999307 4:0.0020722683 
0 32768 32768 1:-2.2931079e-005 2:0.82985794 3:0.044146438 4:0.55622558 
0 32768 32768 1:-0.0015149454 2:0.82994583 3:0.037411221 4:0.55658605 
32768 32768 32768 1:-0.0028897604 2:0.79550327 3:0.28728017 4:0.53351316 
0 32768 32768 1:-0.0012709759 2:0.66011258 3:0.60658183 4:0.44306687 
0 32768 32768 1:-0.0011747242 2:0.8301499 3:0.018012648 4:0.55724798 
0 32768 32768 1:-0.0025314821 2:0.82648888 3:0.09606825 4:0.55468965 
0 32768 32768 1:-0.00060019779 2:0.8282806 3:0.069279189 4:0.55601375 
32768 32768 32768 1:-0.013222197 2:0.7363962 3:0.46168607 4:0.49435998 
0 32768 32768 1:-0.000580157 2:0.49087846 3:0.80646474 4:0.32962497 
0 32768 32768 1:-0.0011985068 2:0.82037053 3:0.15317874 4:0.55093287 
0 32768 32768 1:-0.0015326014 2:0.82881042 3:0.056784115 4:0.55663857 
0 32768 32768 1:-0.0016853322 2:0.82918187 3:0.049266023 4:0.55680109 
0 32768 32768 1:-0.0025922726 2:0.82641524 3:0.095495644 4:0.55489793 
0 32768 32768 1:-0.00081889177 2:0.82938547 3:0.043558635 4:0.55697551 
0 32768 32768 1:-0.00020169099 2:0.82886523 3:0.056447004 4:0.55659332 
0 32768 32768 1:0.0031179957 2:0.82089014 3:0.14133407 4:0.55331215 
32768 32768 32768 2:0.79978013 3:0.25928656 4:0.54140763 
32768 32768 32768 1:0.0025061163 2:0.26910305 3:0.94571381 4:0.18221595 
32768 32768 32768 1:0.0040628781 2:0.62899009 3:0.65005681 4:0.42635795 
32768 32768 32768 1:0.0046499282 2:0.17252914 3:0.9780209 4:0.11699226 
32768 32768 32768 1:0.0049246812 2:0.17129894 3:0.97840531 4:0.11556587 
32768 19611.8487240019 32768 1:0.023040557 2:0.52300603 3:0.77689852 4:0.34980354 
32768 0 32768 1:0.014332594 2:0.12426436 3:0.98865832 4:0.083112449 
32768 0 32768 1:0.00082156182 2:0.13155489 3:0.9875141 4:0.086651813 
32768 0 32768 1:0.015417833 2:0.033617074 3:0.9990763 4:0.021879888 
32768 0 32768 1:0.00093576779 2:0.029149799 3:0.99939652 4:0.018868265 
32768 0 32768 1:0.00094726754 2:0.11916272 3:0.98991526 4:0.076597228 
32768 0 32768 1:-0.0005329574 2:0.067860268 3:0.9967471 4:0.043473222 
0 0 32768 1:0.012648713 2:0.63022817 3:0.66292207 4:0.40396385 
32768 0 32768 1:0.0019900372 2:0.023403616 3:0.99961512 4:0.014762028 
32768 0 32768 1:-4.1166821e-005 2:0.013185503 3:0.99987883 4:0.0082749105 
32768 0 32768 1:-0.0045057176 2:0.026947352 3:0.99948844 4:0.016625215 
32768 0 32768 1:-8.6443332e-005 2:0.012762637 3:0.99988719 4:0.0079194009 
0 0 32768 1:-0.004004667 2:0.22085742 3:0.96601823 4:0.13421904 
0 0 32768 1:-0.013236215 2:0.2474934 3:0.95714096 4:0.14984327 
0 0 32768 1:0.00073874068 2:0.14329077 3:0.98577574 4:0.087825923 
0 0 32768 1:0.0090392271 2:0.18688317 3:0.97572674 4:0.11379942 
0 0 32768 1:-0.0016212934 2:0.17389048 3:0.97908866 4:0.10556928 
0 0 32768 1:0.0181276 2:0.12999217 3:0.98822547 4:0.078637468 
0 0 32768 1:-0.0038542189 2:0.15398926 3:0.98379286 4:0.091782704 
4330.392572303154 0 0 1:0.025804242 2:0.46905773 3:0.83768317 4:0.27857834 
18549.01705017361 0 0 1:0.00050106282 2:0.5509942 3:0.7684332 4:0.32544671 
32768 0 0 1:0.0070184548 2:0.73595862 3:0.51989822 4:0.43361445 
32768 0 32768 1:-0.0032401941 2:0.025276109 3:0.99956354 4:0.014944851 
32768 0 32768 1:-0.0014965677 2:0.042998339 3:0.99874883 4:0.02548896 
0 0 32768 1:-0.010962971 2:0.15232154 3:0.9841234 4:0.090438342 
0 0 32768 1:-0.0019862329 2:0.21621133 3:0.9678174 4:0.12875637 
0 0 20799.99964832273 1:-0.016174658 2:0.42890681 3:0.86606218 4:0.2563467 
0 0 32768 1:0.00069210267 2:0.18827285 3:0.97563117 4:0.11267953 
32768 0 0 1:-0.0028404462 2:0.85701646 3:0.055633667 4:0.51226908 
32768 0 0 1:-0.0031689537 2:0.85483153 3:0.09058447 4:0.51092805 
32768 0 0 1:0.00031840891 2:0.84391022 3:0.18363884 4:0.5040756 
32768 0 0 1:0.0016127402 2:0.85061924 3:0.13694576 4:0.50763191 
0 0 30730.06553466163 1:0.019418642 2:0.38199483 3:0.8954114 4:0.22790632 
32768 0 0 1:-0.0010347691 2:0.81870294 3:0.30211166 4:0.48831646 
32768 0 0 1:0.0042148516 2:0.84910683 3:0.14964412 4:0.50656338 
32768 0 32768 1:0.023706234 2:0.74096433 3:0.50524609 4:0.44174229 
32768 0 0 1:0.015644396 2:0.82553763 3:0.27559296 4:0.49223104 
32768 0 0 1:0.011883443 2:0.78064989 3:0.41650225 4:0.46580083 
32768 0 0 1:0.0010246889 2:0.79536844 3:0.37702121 4:0.47459773 
32768 0 0 1:0.023526396 2:0.5178421 3:0.79729459 4:0.30920446 
32768 0 0 1:0.0036009348 2:0.85545031 3:0.090377443 4:0.50992521 
32768 0 0 1:0.0050594239 2:0.84156307 3:0.19992148 4:0.50177426 
32768 0 0 1:0.0076184405 2:0.61160482 3:0.70203638 4:0.36472786 
32768 0 0 2:0.85820997 4:0.5132988 
32768 0 32768 1:0.014932883 2:0.049790699 3:0.99820385 4:0.029782196 
0 0 32768 1:0.0029650825 2:0.10756006 3:0.99211272 4:0.064299263 
32768 0 0 1:0.011396974 2:0.8310046 3:0.2506205 4:0.49647843 
32768 0 0 1:0.012192917 2:0.85690983 3:0.061604572 4:0.51162657 
4330.799120620791 0 0 1:0.030362692 2:0.54637011 3:0.77080108 4:0.32622617 
32768 0 0 1:0.014535223 2:0.81593917 3:0.31091021 4:0.48720308 
32768 0 0 1:-0.00025592001 2:0.85599776 3:0.075239804 4:0.51147506 
32768 0 0 2:0.858398 4:0.51298429 
0 0 32768 1:-0.0098865001 2:0.30236523 3:0.93582152 4:0.18087457 
0 0 32768 1:-0.017708581 2:0.28558916 3:0.94285087 4:0.17075558 
0 0 32768 1:-0.016029797 2:0.27679001 3:0.94649407 4:0.16516449 
32768 0 0 1:0.0015695317 2:0.83528765 3:0.2271864 4:0.50067796 
0 0 32768 1:-0.019751217 2:0.15444607 3:0.9834521 4:0.092618908 
32768 0 0 1:0.0012441202 2:0.84895107 3:0.14302703 4:0.50874729 
32768 0 0 1:-3.0227314e-005 2:0.85786778 3:0.0090161761 4:0.51379138 
32768 32768 32768 2:0.82166278 4:0.56997392 
32768 0 32768 1:0.012089786 2:0.0025172364 3:0.99992222 4:0.0017465292 
32768 32768 32768 1:-1.9052848e-005 2:0.0020977759 3:0.99999674 4:0.0014553198 
32768 32768 32768 1:-0.0013174454 2:0.78997856 3:0.27492895 4:0.54803851 
32768 32768 32768 1:0.00030353417 2:0.81517483 3:0.1254848 4:0.56545864 
0 32768 32768 1:0.00028966678 2:0.82079463 3:0.046044523 4:0.56936455 
0 32768 32768 1:4.6353403e-005 2:0.82140496 3:0.025512933 4:0.5697745 
0 32768 32768 1:-0.00010515474 2:0.82148681 3:0.021935697 4:0.56980543 
0 32768 32768 1:-0.00040570301 2:0.82078916 3:0.014435833 4:0.57104868 
32768 32768 32768 1:-0.00090622453 2:0.80096069 3:0.21902937 4:0.55721387 
0 32768 32768 1:-0.0017907921 2:0.70660748 3:0.50899384 4:0.49155664 
0 32768 32768 1:-4.9009309e-005 2:0.81955325 3:0.057790257 4:0.57008136 
32768 32768 32768 1:-0.00046583763 2:0.82083924 3:0.013882775 4:0.57099036 
18263.92242883292 32768 32768 1:-0.0002264028 2:0.82086469 3:0.013047944 4:0.5709736 
32768 17046.71437406822 32768 1:-6.7373955e-005 2:0.82091704 3:0.007290112 4:0.57100093 
32768 0 32768 1:-1.2022059e-005 2:0.8209225 3:0.007311074 4:0.57099282 
32768 0 32768 1:0.030664989 2:0.74449665 3:0.42016467 4:0.51792475 
32768 859.0240544643209 32768 1:0.035293862 2:0.7269007 3:0.46395343 4:0.50509101 
32768 0 32768 1:0.037425606 2:0.68213993 3:0.55618791 4:0.47322241 
0 19713.74985314746 23879.98582241475 1:0.029353349 2:0.76718844 3:0.35777452 4:0.53156153 
0 26258.58821252758 32768 1:0.033540392 2:0.80085149 3:0.22400974 4:0.55437494 
32768 32768 32768 1:0.0085485348 2:0.73582378 3:0.44752763 4:0.508143 
32768 0 32768 1:0.033415172 2:0.54726561 3:0.74744882 4:0.37510536 
32768 0 32768 1:0.018548867 2:0.12462964 3:0.98834733 4:0.085398722 
32768 32768 32768 1:0.00021048444 2:0.13333472 3:0.98685168 4:0.091354136 
32768 32768 32768 1:0.011455614 2:0.23593441 3:0.95817729 4:0.16155499 
32768 32768 32768 1:0.0083835724 2:0.31648695 3:0.92358774 4:0.21622075 
0 32768 32768 1:0.0024963058 2:0.53057489 3:0.76700132 4:0.3608227 
0 32768 32768 1:0.014531684 2:0.77342384 3:0.36172563 4:0.52034504 
32768 0 32768 1:0.016320657 2:0.36882925 3:0.89626475 4:0.24578061 
32768 0 32768 1:0.011930414 2:0.089206211 3:0.99414063 4:0.059869239 
32768 0 32768 1:0.00089748896 2:0.037595204 3:0.998976 4:0.025154286 
0 32768 32768 1:0.00041481822 2:0.39918766 3:0.87837287 4:0.26288809 
32768 0 32768 1:-9.3151923e-005 2:0.11084696 3:0.99115881 4:0.072918798 
32768 0 32768 1:0.010675002 2:0.052673459 3:0.99794812 4:0.034800793 
32768 15840.26077284318 32768 2:0.23929501 3:0.9583407 4:0.15595195 
32768 32768 32768 1:-0.00030993073 2:0.0059929136 3:0.99997434 4:0.0039116911 
32768 0 32768 1:0.00020469903 2:0.017656657 3:0.99977781 4:0.011512635 
32768 0 32768 1:0.014020292 2:0.14153248 3:0.98554608 4:0.092037547 
32768 0 32768 1:0.00055738638 2:0.17191602 3:0.97875674 4:0.11171306 
32768 0 32768 1:0.0078501743 2:0.23041864 3:0.96152902 4:0.14935715 
32768 0 32768 1:0.019636579 2:0.053189645 3:0.99780352 4:0.034255057 
32768 0 32768 1:0.030110886 2:0.11253286 3:0.99045505 4:0.07367827 
32768 0 32768 1:0.022534242 2:0.063258906 3:0.9969037 4:0.040908753 
32768 0 32768 1:0.0039272797 2:0.052960191 3:0.99800756 4:0.034069191 
32768 0 32768 1:0.0034035534 2:0.0077577597 3:0.99995168 4:0.0049867358 
32768 0 32768 1:0.0014747436 2:0.011990818 3:0.99989737 4:0.0077001126 
0 0 32768 1:0.028194441 2:0.53534225 3:0.77174123 4:0.34209534 
1860.053678688239 0 32768 1:0.013899109 2:0.65084836 3:0.63689461 4:0.41299937 
0 0 32768 1:-0.014105384 2:0.62362808 3:0.67424554 4:0.39532519 
0 0 32768 1:-0.021592094 2:0.43218205 3:0.85866176 4:0.27468609 
0 0 32768 1:-0.018331233 2:0.52704538 3:0.78075284 4:0.33513004 
32768 0 31414.96847336327 1:-0.034788102 2:0.69590506 3:0.56357578 4:0.44372094 
0 0 30755.61817813182 1:-0.024899289 2:0.82844089 3:0.18252136 4:0.52891556 
0 0 32768 1:-0.027309756 2:0.48011912 3:0.82196836 4:0.30513576 
32768 0 32768 1:-0.026474478 2:0.81336697 3:0.26397648 4:0.51773515 
25106.79220611871 0 32768 1:-0.030776332 2:0.60557748 3:0.6946782 4:0.38697665 
32768 0 32768 1:-0.015032396 2:0.10276968 3:0.99242593 4:0.065598786 
0 0 32768 1:-0.0033598449 2:0.22427215 3:0.96392721 4:0.14330056 
3846.093709436237 0 32768 1:-0.038468134 2:0.42708043 3:0.86120326 4:0.27285795 
32768 0 32768 1:-0.046179525 2:0.50315096 3:0.80182753 4:0.31902847 
32768 0 0 1:-0.0015532576 2:0.83828622 3:0.11597718 4:0.5327505 
0 0 32768 1:0.0030926908 2:0.84219567 3:0.026696442 4:0.53850181 
0 0 4553.16267875379 1:0.021722955 2:0.80303798 3:0.30309361 4:0.51263279 
0 0 17558.87813418371 1:0.015427036 2:0.78898854 3:0.35096697 4:0.50406476 
0 0 32768 1:0.01336727 2:0.83049662 3:0.16722691 4:0.53116084 
0 16915.2385020438 32768 1:0.0088869284 2:0.78214115 3:0.3709708 4:0.5005566 
0 0 32768 1:0.0091550205 2:0.83305642 3:0.14768814 4:0.53303039 
0 0 32768 1:0.0094493739 2:0.82135823 3:0.22079257 4:0.52586311 
0 0 32768 1:0.010874548 2:0.76890877 3:0.40974033 4:0.49068719 
0 0 32768 1:-0.0029707379 2:0.30403847 3:0.93271757 4:0.19388067 
0 0 32768 1:-0.015122601 2:0.68288498 3:0.58557927 4:0.43650467 
32768 0 32768 1:-0.0094444353 2:0.78042606 3:0.37535985 4:0.49995095 
32768 0 32768 1:-0.0043842266 2:0.7808081 3:0.37708311 4:0.4981243 
0 0 32768 1:-0.018546474 2:0.53606444 3:0.77106454 4:0.34314782 
0 0 32768 1:0.00012191855 2:0.54609665 3:0.76133561 4:0.34949465 
32768 0 0 1:0.0004981514 2:0.83788068 3:0.10100271 4:0.53642722 
0 0 32768 1:0.0053064357 2:0.61850879 3:0.6787352 4:0.39590055 
0 0 32768 1:0.005948076 2:0.67610859 3:0.59609441 4:0.43302801 
0 0 32768 1:0.0044179452 2:0.82477297 3:0.19906325 4:0.52924838 
0 0 32768 1:0.00060529678 2:0.84195481 3:0.031638123 4:0.53861932 
0 0 32768 1:0.0044854469 2:0.82442317 3:0.20116913 4:0.52899651 
0 0 32768 1:0.00071639586 2:0.83220295 3:0.14769169 4:0.53443887 
0 0 12460.72001391287 1:-0.00017898529 2:0.84021858 3:0.056014281 4:0.53934693 
32768 32768 32768 2:0.00064450137 3:0.99999969 4:0.00045458805 
32768 0 32768 1:-0.00017700571 2:0.81446988 3:0.081583649 4:0.57444138 
32768 0 32768 1:0.00021390975 2:0.81567803 3:0.061174455 4:0.57526255 
32768 0 32768 1:-0.00055967775 2:0.81592334 3:0.055999288 4:0.57544145 
32768 0 32768 1:-0.00050627328 2:0.805051 3:0.1718461 4:0.56776892 
32768 0 32768 1:4.604463e-006 2:0.81273905 3:0.10459754 4:0.57316193 
32768 0 32768 1:-6.7063425e-005 2:0.81719381 3:0.0087817167 4:0.57629606 
32768 0 32768 1:0.0010195216 2:0.81696003 3:0.025874665 4:0.57611264 
23171.37756825625 0 32768 1:-0.00010773318 2:0.8166935 3:0.036488913 4:0.5759169 
32768 0 32768 1:0.0004477167 2:0.8169528 3:0.015040855 4:0.57650819 
32768 0 32768 1:8.4795267e-005 2:0.81703384 3:0.0071349902 4:0.57654557 
32768 0 32768 1:0.00023708011 2:0.81702981 3:0.0089030827 4:0.57652665 
32768 0 0 1:0.00023874546 2:0.81704844 3:0.002633757 4:0.57656297 
32768 0 32768 1:0.0005783855 2:0.81683541 3:0.023145401 4:0.57640599 
32768 0 32768 1:-0.00071693263 2:0.8167424 3:0.027928803 4:0.5763257 
32768 0 32768 1:0.00027422645 2:0.81692263 3:0.016687712 4:0.57650573 
32768 0 32768 1:-0.0004980274 2:0.8163883 3:0.03490731 4:0.57644719 
32768 0 32768 1:-0.00042262525 2:0.81606651 3:0.044022327 4:0.57627885 
32768 0 32768 1:-0.00090651198 2:0.81679303 3:0.0095002259 4:0.57685186 
32768 0 32768 1:-0.0037205675 2:0.81357077 3:0.094242272 4:0.57376577 
32768 0 32768 2:0.75072434 3:0.3995391 4:0.52610025 
32768 0 32768 1:0.00053848319 2:0.026366688 3:0.99948329 4:0.018375525 
32768 7880.617578563823 32768 1:0.00040001274 2:0.078008676 3:0.99547894 4:0.054186374 
32768 32768 32768 1:0.0038695978 2:0.31857938 3:0.92171543 4:0.22120777 
32768 32768 32768 2:0.82337857 3:6.4848798e-005 4:0.56749248 
32768 0 32768 1:0.00039631894 2:0.037654839 3:0.99895484 4:0.025907334 
32768 32768 32768 1:0.00043808838 2:0.11755924 3:0.98976638 4:0.080883591 
32768 0 32768 1:0.0096613135 2:0.15784528 3:0.9816037 4:0.10698462 
32768 7053.657417008141 32768 1:0.011255915 2:0.24448368 3:0.9552972 4:0.16585622 
0 32768 32768 1:0.0092053561 2:0.49559906 3:0.80333621 4:0.33007236 
32768 0 32768 1:0.0093807065 2:0.09047195 3:0.99402617 4:0.060322517 
32768 0 32768 1:0.00032202339 2:0.087342473 3:0.99447569 4:0.058217595 
32768 0 32768 1:0.01066821 2:0.14536757 3:0.98461749 4:0.096347563 
32768 0 32768 1:0.005379211 2:0.22945097 3:0.96160637 4:0.15045432 
32768 0 32768 1:-0.0015576839 2:0.094011162 3:0.99368936 4:0.061163125 
32768 0 32768 1:-0.0021738351 2:0.092203941 3:0.9939451 4:0.059723011 
0 15837.07396731321 32768 1:-0.0087870219 2:0.68286154 3:0.58250961 4:0.44080092 
32768 0 32768 1:-0.012628149 2:0.069778341 3:0.9964967 4:0.044337896 
32768 0 32768 1:0.0016412796 2:0.040546924 3:0.99883621 4:0.026066981 
0 0 32768 1:-0.023133897 2:0.23396177 3:0.96034404 4:0.14988672 
0 0 1660.839969003497 1:0.017100828 2:0.39680432 3:0.88204483 4:0.25347744 
32768 0 32768 1:0.016539917 2:0.072787186 3:0.99613998 4:0.046190922 
32768 0 32768 1:0.0059716165 2:0.055109655 3:0.99785148 4:0.034924081 
28117.34287111885 0 26753.43988112548 1:0.099740563 2:0.64914283 3:0.63268457 4:0.410336 
9497.539319123274 0 32768 1:0.034274707 2:0.39861361 3:0.88119173 4:0.25186022 
32768 0 0 1:0.020975254 2:0.68177622 3:0.59151812 4:0.429939 
0 0 32768 1:-0.00077796388 2:0.13716001 3:0.98675338 4:0.086627375 
0 0 32768 1:-0.004021841 2:0.24752099 3:0.95617097 4:0.15637861 
1016.672345029176 0 0 1:-0.028217077 2:0.67197403 3:0.60605249 4:0.42468233 
32768 0 32768 1:-0.0086878474 2:0.79400813 3:0.33887039 4:0.50462111 
32768 0 0 1:-0.0038305998 2:0.84059208 3:0.096398087 4:0.53300816 
0 0 10108.61171020782 1:-0.01301309 2:0.63071337 3:0.66537024 4:0.39914126 
0 0 32768 1:-0.015565835 2:0.32055566 3:0.92518468 4:0.20257116 
8768.77279995654 0 0 1:-0.0022794875 2:0.84415403 3:0.04285587 4:0.53438015 
32768 0 0 1:-0.0033473463 2:0.84203337 3:0.083470438 4:0.5329177 
32768 0 32768 1:-0.00010531268 2:0.84456711 3:0.020536351 4:0.53505574 
32768 0 32768 1:-0.00025548562 2:0.84461227 3:0.014399556 4:0.53518473 
32768 0 0 1:-0.0027192008 2:0.83708389 3:0.13649025 4:0.52976747 
32768 0 0 1:-0.0039206054 2:0.79176597 3:0.34951158 4:0.50093206 
32768 0 0 1:-0.005052904 2:0.79816332 3:0.32818869 4:0.50517519 
22004.96935391851 0 0 2:0.83708296 3:0.13493849 4:0.5301733 
0 0 32768 1:-0.0042153051 2:0.14077894 3:0.98600673 4:0.089186572 
0 0 32768 1:0.0012521768 2:0.23782614 3:0.95955348 4:0.15064623 
32768 0 0 1:-0.0026394027 2:0.83964613 3:0.11043124 4:0.53178224 
32768 0 0 1:-0.0039309346 2:0.83918461 3:0.11536427 4:0.53145539 
-32768 32768 32768 2:0.8258895 4:0.56383201 
-32768 32768 32768 2:0.0015025652 3:0.99999835 4:0.0010179129 
-32768 0 32768 1:-0.0025685029 2:0.11801377 3:0.989806 4:0.079688342 
-32768 32768 32768 2:0.82828471 3:6.2317688e-005 4:0.56030745 
-32768 0 32768 1:0.0014275183 2:0.04900856 3:0.9982468 4:0.033157919 
-32768 32768 32768 2:0.82212171 4:0.56931177 
-0 0 32768 1:0.0078985322 2:0.0011515494 3:0.99996783 4:0.00079733015 
-16261.15844977828 0 32768 1:1.4699323e-006 2:0.0017276725 3:0.99999779 4:0.0011962421 
-32768 32768 32768 1:0.00041180826 2:0.8190855 3:0.086592089 4:0.56709839 
-32768 32768 32768 1:0.001321998 2:0.81630779 3:0.11922151 4:0.56517792 
-32768 32768 32768 1:8.1675582e-005 2:0.82000585 3:0.070955728 4:0.56793986 
-32768 32768 32768 1:0.0035076789 2:0.82116998 3:0.044158104 4:0.56896188 
-32768 32768 32768 1:0.0079883354 2:0.7306296 3:0.45797523 4:0.50633513 
-32768 32768 32768 1:0.0033894672 2:0.79360183 3:0.26016313 4:0.54999981 
-32768 32768 32768 1:0.0019671857 2:0.82060661 3:0.055369124 4:0.56880153 
-32768 32768 32768 1:0.0039969443 2:0.81999592 3:0.067029428 4:0.56841689 
-32768 32768 32768 1:0.0025114371 2:0.82104619 3:0.04368716 4:0.56918212 
-32768 32768 32768 2:0.82182666 3:0.0072923846 4:0.56969094 
-32768 24240.16815421524 32768 1:-0.011181648 2:0.49343221 3:0.79947865 4:0.3423938 
-32768 20399.90940548472 32768 1:-0.0010362252 2:0.69705138 3:0.52867939 4:0.48437216 
-32768 32768 32768 1:-0.0015588117 2:0.81856037 3:0.075604179 4:0.5694212 
-32768 0 32768 1:-0.0065054058 2:0.77822892 3:0.31501042 4:0.54321806 
-32768 0 32768 1:-0.0021836402 2:0.76592895 3:0.35306579 4:0.53730124 
-32768 32768 32768 1:0.0072786663 2:0.39994459 3:0.87272097 4:0.27990973 
-0 0 32768 1:0.011485309 2:0.14235317 3:0.98469038 4:0.099942615 
-32768 32768 32768 1:0.0054208351 2:0.29018684 3:0.93530277 4:0.20241281 
-22701.29464290473 0 32768 1:-0.0063625815 2:0.092420629 3:0.99366298 4:0.063654023 
-0 0 32768 1:0.00051602856 2:0.027537014 3:0.99944312 4:0.018838451 
-0 0 32768 1:0.024787652 2:0.1105556 3:0.99069321 4:0.075432066 
-32768 0 32768 1:0.0096274024 2:0.11130292 3:0.99091924 4:0.074819963 
-32768 0 32768 1:-0.007369356 2:0.036205477 3:0.99903498 4:0.023747869 
-32768 0 32768 1:-0.0051045841 2:0.027822664 3:0.99943418 4:0.01819793 
-32768 0 32768 1:-0.00059988587 2:0.015686322 3:0.99982417 4:0.010257371 
-32768 7376.467205965441 32768 1:0.002383222 2:0.084745506 3:0.99488619 4:0.054899841 
-32768 0 32768 1:0.0059973866 2:0.11559283 3:0.99063373 4:0.072437109 
-32768 0 32768 1:0.0076479344 2:0.048529628 3:0.99831472 4:0.03088871 
-32768 0 32768 1:0.0015319601 2:0.038439869 3:0.99897307 4:0.023934176 
-32768 0 32768 1:0.010166321 2:0.096100172 3:0.99353714 4:0.059542957 
-32768 0 32768 1:0.019439101 2:0.16819623 3:0.97998665 4:0.10468196 
-32768 0 32768 1:0.007155835 2:0.034607624 3:0.99915208 4:0.021124019 
-32768 0 32768 1:0.014133529 2:0.071174107 3:0.99643837 4:0.042954257 
-32768 0 32768 1:0.0056432597 2:0.11354056 3:0.99113769 4:0.068722514 
-32768 0 32768 1:0.021701253 2:0.49230745 3:0.81820836 4:0.29613766 
-32768 0 32768 1:0.017441368 2:0.13750371 3:0.98688033 4:0.082799458 
-32768 0 32768 1:0.0036969142 2:0.15854612 3:0.98273525 4:0.095293656 
-32768 0 32768 1:0.024713904 2:0.24758732 3:0.95705266 4:0.14879496 
-32768 0 32768 2:0.85822242 4:0.51327798 
-32768 0 32768 1:0.0079934864 2:0.024417369 3:0.99956351 4:0.014583669 
-32768 0 32768 1:0.0022226259 2:0.030572153 3:0.99936326 4:0.018261357 
-32768 32768 32768 1:0.0034302375 2:0.22618722 3:0.96466545 4:0.13508567 
-32768 0 0 1:0.0076741343 2:0.81107383 3:0.32660284 4:0.48521226 
-32768 0 0 1:0.0066107898 2:0.85121316 3:0.12753545 4:0.50904535 
-32768 0 0 1:0.0046373201 2:0.82993838 3:0.25295488 4:0.49718668 
-32768 0 0 1:-0.00041392197 2:0.82244525 3:0.2842239 4:0.49274782 
-32768 0 0 1:0.0099000303 2:0.82768329 3:0.26308625 4:0.4956087 
-32768 0 32768 1:-0.00039729678 2:0.6181949 3:0.69336413 4:0.37024464 
-32768 0 0 1:0.0013638305 2:0.83889378 3:0.20927186 4:0.50245464 
-32768 0 0 1:0.0005456428 2:0.85729831 3:0.033468524 4:0.51373064 
-32768 0 0 1:0.0029622101 2:0.85145223 3:0.12118144 4:0.51023071 
-32768 0 0 1:0.00036589398 2:0.85660147 3:0.056334364 4:0.51289396 
-32768 0 8312.334810827646 1:0.0013546382 2:0.85787216 3:0.01995144 4:0.51347392 
-32768 0 0 1:0.004569716 2:0.84439682 3:0.17881733 4:0.50497277 
-32768 0 0 1:0.0006161979 2:0.84863273 3:0.14910987 4:0.50753163 
-32768 0 0 1:0.00085288826 2:0.85728611 3:0.046343005 4:0.51274958 
-32768 0 0 1:1.2546701e-005 2:0.85609964 3:0.069669113 4:0.51209337 
-32768 0 0 1:0.0012700152 2:0.85227466 3:0.11461697 4:0.51038146 
-32768 0 1381.378850794966 1:0.0073656425 2:0.62670833 3:0.68249271 4:0.37601345 
-32768 0 32768 1:-0.00038101527 2:0.5985552 3:0.71606379 4:0.35914368 
-32768 0 17324.91690685592 1:0.006384665 2:0.70179288 3:0.5741645 4:0.42164097 
-32768 0 32768 1:-0.0025467346 2:0.60504981 3:0.70812956 4:0.36395159 
-32768 0 0 1:0.00048634551 2:0.85328481 3:0.089940742 4:0.5136297 
-32768 0 20414.74959469647 2:0.8004657 3:0.35527934 4:0.48273311 
-32768 1383.406463131024 32768 1:0.0006722101 2:0.15937818 3:0.98254241 4:0.095961271 
-32768 9786.168591028612 32768 1:0.0005263608 2:0.47578309 3:0.83167376 4:0.28626723 
-32768 0 32768 1:0.012728371 2:0.81379716 3:0.31292062 4:0.48954352 
-32768 8604.711792247394 32768 1:0.0020860215 2:0.71193623 3:0.55309857 4:0.43269438 
-32768 0 32768 1:-0.0038330055 2:0.82071147 3:0.27803712 4:0.49911257 
-32768 0 0 1:0.0011171928 2:0.84891456 3:0.11468137 4:0.51593702 
-32768 0 32768 1:0.0003830829 2:0.76786327 3:0.43907487 4:0.46647519 
-32768 0 32768 1:-0.0044719244 2:0.74534914 3:0.48916352 4:0.45293897 
-32768 0 32768 1:-0.0012262991 2:0.66552612 3:0.62723592 4:0.40453503 
-32768 0 32768 1:-0.0012402538 2:0.59947357 3:0.712731 4:0.36420383 
-32768 0 0 1:0.00062564048 2:0.85085737 3:0.093845301 4:0.51694719 
-32768 0 0 2:0.85703877 3:0.03011467 4:0.51437113 
-32768 0 32768 1:1.774204e-005 2:0.54070871 3:0.77604072 4:0.3246458 
-32768 0 0 1:0.0020330551 2:0.67717487 3:0.61329242 4:0.40657406 
-32768 0 0 1:-1.8161546e-005 2:0.85189015 3:0.11364564 4:0.51124147 
-32768 0 0 1:-0.0058225621 2:0.85424111 3:0.084326559 4:0.51295931 
-32768 0 0 1:-0.0077100363 2:0.82004901 3:0.2914161 4:0.49248029 
-32768 0 0 1:-0.0014741757 2:0.75208103 3:0.4798811 4:0.45175888 
-32768 0 32768 1:0.0043097234 2:0.75083671 3:0.48236787 4:0.45116172 
-32768 0 31457.68641467008 1:0.0056429847 2:0.80522098 3:0.34280068 4:0.483813 
-32768 0 32768 1:0.0074691043 2:0.80696652 3:0.33708564 4:0.48489434 
-32768 0 0 1:-5.9046059e-005 2:0.78107051 3:0.41197544 4:0.46926015 
-32768 0 0 1:0.0017728724 2:0.85578166 3:0.051573146 4:0.51475704 
-32768 0 0 1:0.0049370612 2:0.8527538 3:0.098085917 4:0.51299682 
-32768 0 0 1:0.00040025565 2:0.84406643 3:0.17166472 4:0.50801862 
-32768 0 32768 1:-0.0028609699 2:0.82630434 3:0.26403789 4:0.49749064 
-32768 0 0 1:0.0026921052 2:0.82193633 3:0.28189428 4:0.49492326 
-32768 0 0 1:0.0051205897 2:0.84536607 3:0.16182369 4:0.50906098 
-32768 0 0 1:0.0054047545 2:0.84611462 3:0.15637281 4:0.5095178 
-32768 0 5664.06047310841 1:-0.0027855575 2:0.83644701 3:0.21648227 4:0.50347201 
-32768 0 0 1:0.0010169123 2:0.85141204 3:0.11244288 4:0.51230176 
-32768 0 0 1:-0.00068181796 2:0.8362862 3:0.21811 4:0.50304369 
-32768 0 0 1:-0.00022195301 2:0.84930635 3:0.13308117 4:0.51085035 
-32768 0 32768 1:0.00036887763 2:0.85679645 3:0.018856481 4:0.51530975 
-32768 0 32768 1:0.0033676606 2:0.77732409 3:0.42115749 4:0.4673139 
-32768 0 32768 1:0.0058959515 2:0.56967046 3:0.74702597 4:0.34262663 
-32768 0 28348.42814332513 1:-0.00023898371 2:0.76831467 3:0.44280169 4:0.46218954 
-32768 0 0 1:0.00054638453 2:0.85167182 3:0.11035345 4:0.51232502 
-32768 0 0 1:-0.00021654939 2:0.85620255 3:0.047092253 4:0.51448952 
-32768 0 0 1:0.0055313451 2:0.83732618 3:0.21351245 4:0.50325611 
-32768 0 0 1:0.0010323829 2:0.84396136 3:0.1742334 4:0.50731734 
-32768 0 0 1:-3.1021773e-005 2:0.85488161 3:0.06956094 4:0.51413881 
-32768 0 0 1:0.00066876579 2:0.85554796 3:0.058568942 4:0.51439956 
-32768 0 0 1:-0.00024968204 2:0.85652064 3:0.043729454 4:0.51425681 
-32768 0 0 1:0.0029017302 2:0.85281344 3:0.10281208 4:0.5119868 
-32768 0 0 1:-4.2118748e-005 2:0.85189743 3:0.111274 4:0.51175079 
-32768 0 0 1:-0.0031457042 2:0.85230592 3:0.10741736 4:0.51188498 
-32768 0 0 1:0.00084655772 2:0.84742012 3:0.15061874 4:0.50910944 
-32768 0 0 1:-9.5415054e-005 2:0.84434328 3:0.17484274 4:0.50647254 
-32768 0 0 1:0.0025937545 2:0.80518022 3:0.34391126 4:0.48311813 
-32768 0 0 1:0.00023128877 2:0.83560482 3:0.22393009 4:0.50161723 
-32768 0 0 1:-0.0021479625 2:0.85497404 3:0.075149534 4:0.51319326 
-32768 0 32768 2:0.85736416 3:0.0053146588 4:0.51468286 
-32768 0 0 1:-0.0060234324 2:0.75706928 3:0.46925162 4:0.45454673 
-32768 0 0 1:0.0013947588 2:0.80928639 3:0.33046344 4:0.48564133 
-32768 0 0 1:-0.0026576313 2:0.84138603 3:0.19277427 4:0.50487679 
-32768 0 0 1:-0.00011863532 2:0.85706463 3:0.029878478 4:0.5143418 
-0 0 32768 1:0.019817916 2:0.088964849 3:0.99398259 4:0.060754491 
-32768 0 32768 1:0.035311304 2:0.32495051 3:0.91873754 4:0.22154368 
-0 0 32768 1:0.013130195 2:0.0680965 3:0.99651662 4:0.046315213 
-32768 32768 32768 2:0.15963352 3:0.98119817 4:0.10847713 
-0 0 32768 1:0.013380627 2:0.011176462 3:0.99981913 4:0.0075992216 
-0 0 32768 1:0.0018499672 2:0.01832453 3:0.99975237 4:0.01248991 
-32768 0 32768 1:0.012530067 2:0.10702971 3:0.99148943 4:0.073050328 
-32768 0 32768 1:0.057902872 2:0.70147983 3:0.52560526 4:0.47782049 
-32768 0 32768 1:0.010211408 2:0.12818032 3:0.98781931 4:0.087627327 
-32768 32768 32768 2:0.18574744 3:0.97413435 4:0.12868629 
-0 0 17389.6075679234 1:0.034493212 2:0.1417303 3:0.98446701 4:0.097710985 
-32768 0 32768 1:0.0070409821 2:0.071812139 3:0.99626391 4:0.047451589 
-0 0 32768 1:0.037176343 2:0.082375612 3:0.99449633 4:0.05300219 
-0 0 32768 1:0.010431967 2:0.016535934 3:0.99974694 4:0.011126354 
-32768 0 32768 1:0.0070330481 2:0.016788752 3:0.99977672 4:0.01073217 
-0 0 32768 1:-0.027320936 2:0.023840566 3:0.99922578 4:0.015265512 
-32768 0 32768 1:0.0019512457 2:0.030813998 3:0.9993234 4:0.01998587 
-0 0 32768 1:0.056736142 2:0.012743883 3:0.99827202 4:0.0084605186 
-32768 0 32768 1:-1.1226953e-005 2:0.0081085323 3:0.99995311 4:0.005294984 
-32768 0 32768 1:-0.010275822 2:0.077966696 3:0.99563535 4:0.050257828 
-0 0 32768 1:0.030854159 2:0.03588344 3:0.99861371 4:0.023044907 
-32768 0 32768 1:0.00147597 2:0.0064325993 3:0.99996958 4:0.0041562221 
-0 0 32768 1:0.030591311 2:0.060989207 3:0.99687136 4:0.03989962 
-0 0 32768 1:0.021089385 2:0.11566474 3:0.98988856 4:0.079357093 
-11558.19360903697 0 0 1:0.064582152 2:0.40686943 3:0.86718628 4:0.27977556 
-0 0 32768 1:0.0082546362 2:0.0094199587 3:0.9998991 4:0.0067014688 
-0 0 32768 1:0.0017315803 2:0.012036743 3:0.99988898 4:0.008610996 
-0 0 32768 1:0.013882099 2:0.014790717 3:0.99973742 4:0.010658591 
-0 0 14178.78719112035 1:-0.03271506 2:0.6188767 3:0.64636758 4:0.4451183 
-0 0 32768 1:-0.029992139 2:0.65819121 3:0.58502852 4:0.47289158 
-0 0 32768 1:-0.027765257 2:0.75667882 3:0.36218578 4:0.54358781 
-32768 0 32768 1:-0.019692035 2:0.62925107 3:0.63232603 4:0.45146329 
-30926.22076273529 0 32768 1:-0.020750927 2:0.80251501 3:0.15198501 4:0.57657576 
-0 0 6985.43599858453 1:-0.016916535 2:0.34537459 3:0.90496184 4:0.24794009 
-0 0 32768 1:-0.044424579 2:0.51321938 3:0.77514236 4:0.36576857 
-32768 0 32768 1:-0.035501118 2:0.5045092 3:0.78636605 4:0.35473733 
-0 0 32768 1:-0.0282195 2:0.033251827 3:0.99877705 4:0.023289251 
-0 0 32768 1:-0.022738506 2:0.012933007 3:0.99961689 4:0.009042947 
-0 0 32768 1:-0.00065007296 2:0.015283512 3:0.9998261 4:0.010665983 
-0 0 32768 1:-0.048687413 2:0.354848 3:0.90012874 4:0.24795297 
-0 0 32768 1:-0.05074596 2:0.27625831 3:0.93994934 4:0.19391089 
-0 0 7607.268871126384 1:-0.045495688 2:0.089059943 3:0.99306129 4:0.061868734 
-0 0 32768 1:-0.070366161 2:0.15961525 3:0.9785015 4:0.11002909 
-0 0 32768 1:-0.048048522 2:0.12300232 3:0.98761243 4:0.084755305 
-0 0 32768 1:-0.079910306 2:0.37041404 3:0.88999551 4:0.25360556 
-0 0 32768 1:-0.025807188 2:0.062769555 3:0.99677018 4:0.042932254 
-0 0 32768 1:-0.072550743 2:0.20183473 3:0.96686418 4:0.13846582 
-0 0 32768 1:-0.040781382 2:0.1931272 3:0.97127112 4:0.13293298 
-0 0 32768 1:-0.018739209 2:0.032764131 3:0.99903709 4:0.022366269 
-0 0 32768 1:-0.057030361 2:0.13750701 3:0.98445666 4:0.093190409 
-0 0 32768 1:-0.047858958 2:0.068689056 3:0.99540627 4:0.046451031 
-0 0 32768 1:-0.083751772 2:0.12657799 3:0.9846926 4:0.085697972 
-0 0 32768 1:-0.060031774 2:0.085155137 3:0.99286729 4:0.057959693 
-32768 0 32768 1:-0.013747693 2:0.074696064 3:0.99581731 4:0.050787555 
-0 0 32768 1:-0.074136546 2:0.36455701 3:0.89418935 4:0.24905292 
-0 0 30455.22976901967 1:-0.11853001 2:0.48691851 3:0.79829294 4:0.33404996 
-0 0 32768 1:-0.057408845 2:0.088924845 3:0.99249574 4:0.0612275 
-0 0 20701.40423789493 1:-0.1209171 2:0.66282371 3:0.57997016 4:0.45790653 
-0 0 32768 1:-0.078110974 2:0.578642 3:0.70634979 4:0.40017757 
-0 0 179.8820318696356 1:-0.094738877 2:0.77657351 3:0.31225623 4:0.538938 
-32768 0 32768 1:-0.015931752 2:0.16233647 3:0.9801555 4:0.11264209 
-0 0 32768 1:-0.06684576 2:0.44627822 3:0.83685174 4:0.30991381 
-0 0 32768 1:-0.060202091 2:0.23812578 3:0.95521688 4:0.16502282 
-0 0 32768 1:-0.04415387 2:0.21826422 3:0.96299226 4:0.15184556 
-31168.12680052599 0 32768 1:-0.025794887 2:0.20344231 3:0.96841032 4:0.14187069 
-0 0 32768 1:-0.044406596 2:0.33503984 3:0.91154609 4:0.23422231 
-0 0 32768 1:-0.034498328 2:0.41254888 3:0.8631477 4:0.28911821 
-32768 0 32768 1:-0.029551355 2:0.58828924 3:0.69623582 4:0.41024159 
-0 0 32768 1:-0.037162213 2:0.14807564 3:0.9828602 4:0.1033364 
-0 0 32768 1:-0.0061184064 2:0.10695764 3:0.99142692 4:0.074801677 
-0 0 32768 1:-0.045029928 2:0.45426471 3:0.83134027 4:0.31700037 
-0 0 32768 1:-0.033746793 2:0.1120092 3:0.99005184 4:0.078182166 
-0 0 32768 1:-0.017223744 2:0.13329882 3:0.98654556 4:0.09307319 
-0 0 32768 1:-0.04833324 2:0.51112554 3:0.7800676 4:0.35764384 
-0 0 32768 1:-0.03518338 2:0.63038109 3:0.63747249 4:0.44160008 
-0 1105.571375652877 32768 1:-0.032830405 2:0.7974166 3:0.21548719 4:0.56268481 
-0 0 32768 1:-0.010449033 2:0.0055066235 3:0.99992263 4:0.0039033805 
-0 0 32768 1:-0.00012220918 2:0.0057708906 3:0.99997499 4:0.0040877895 
-32768 32768 32768 2:0.82562825 4:0.56421449 
-0 0 32768 1:2.0726058e-007 2:0.0022497846 3:0.99999629 4:0.0015324804 
-32768 32768 32768 1:-0.0036688524 2:0.81987537 3:0.12691676 4:0.55828581 
-32768 32768 32768 1:-0.0041890203 2:0.62793753 3:0.65028532 4:0.42755808 
-32768 32768 32768 1:-0.0019119862 2:0.75976147 3:0.39386705 4:0.51732736 
-32768 32768 32768 1:-0.0033106295 2:0.82552966 3:0.049043767 4:0.56221396 
-32768 32768 32768 1:-0.0024659343 2:0.82594801 3:0.041177618 4:0.56223501 
-32768 32768 32768 1:-0.0018872317 2:0.82655366 3:0.0085929882 4:0.56278917 
-0 0 32768 1:-0.075896914 2:0.76521587 3:0.37032538 4:0.52109831 
-32768 32768 32768 1:-0.011073006 2:0.37337967 3:0.89206947 4:0.25431689 
-32768 32768 32768 1:-0.0063539009 2:0.78009264 3:0.33024687 4:0.53136815 
-32768 32768 32768 1:-0.0079485231 2:0.81938013 3:0.13052542 4:0.55813631 
-32768 32768 32768 1:0.0048610287 2:0.76593912 3:0.37557793 4:0.52178046 
-32768 32768 32768 1:0.014185727 2:0.8098642 3:0.19809235 4:0.55197659 
-0 0 32768 1:0.014040574 2:0.010585838 3:0.99981905 4:0.0072576722 
-0 0 32768 1:0.0061679531 2:0.025844646 3:0.99949172 4:0.017615857 
-32768 0 32768 1:0.012617019 2:0.21127151 3:0.96674517 4:0.14355811 
-0 0 32768 1:0.070377065 2:0.31886095 3:0.92101553 4:0.21237975 
-0 0 32768 1:0.03099672 2:0.016338501 3:0.99932825 4:0.010737817 
-0 0 32768 1:0.0018687366 2:0.0066964646 3:0.99996586 4:0.0044652041 
-0 0 32768 1:0.010950459 2:0.019410009 3:0.99966862 4:0.012883471 
-0 0 32768 1:0.011172602 2:0.013620038 3:0.99980408 4:0.0090257041 
-32768 0 32768 1:0.012093411 2:0.068982166 3:0.99653334 4:0.044905556 
-0 0 10284.53489908932 1:0.039864512 2:0.036419219 3:0.99825869 4:0.023749857 
-32768 0 32768 1:0.0038824977 2:0.014802855 3:0.99983782 4:0.0094941285 
-0 0 32768 1:-0.023498581 2:0.015524456 3:0.99955498 4:0.0098313254 
-32768 0 32768 1:0.0048986208 2:0.020126632 3:0.99970331 4:0.012814755 
-32768 0 32768 1:0.016875648 2:0.043911032 3:0.99846859 4:0.029112055 
-0 0 32768 1:0.021270242 2:0.043150357 3:0.99843869 4:0.028386689 
-0 0 32768 1:0.01498442 2:0.032144632 3:0.99914621 4:0.021190818 
-32768 0 32768 1:0.014434711 2:0.063252207 3:0.99703805 4:0.041302781 
-0 0 32768 1:0.014573816 2:0.044649907 3:0.99844979 4:0.029866352 
-0 0 32768 1:-0.010028064 2:0.033025281 3:0.99916133 4:0.02203199 
-32768 0 32768 1:0.0079715835 2:0.063109385 3:0.99710368 4:0.041688298 
-32768 0 32768 2:0.031169257 3:0.99929731 4:0.020817268 
-0 0 32768 1:0.014263267 2:0.0044403129 3:0.99988409 4:0.002941251 
-0 0 32768 1:0.0037600427 2:0.0076806081 3:0.99995015 4:0.0051542252 
-32768 0 32768 1:0.0092796292 2:0.023444071 3:0.9995678 4:0.015115308 
-32768 0 32768 1:0.0069721943 2:0.012807785 3:0.99985874 4:0.0083570927 
-0 0 32768 1:0.0089055081 2:0.013890832 3:0.99982254 4:0.0090899094 
-31997.3944312648 0 32768 1:0.0017285833 2:0.037078488 3:0.99899848 4:0.024984536 
-0 0 32768 1:0.020709459 2:0.028283355 3:0.99920805 4:0.018826694 
-0 0 32768 1:0.0005085061 2:0.01241669 3:0.99988884 4:0.0082386047 
-32768 32768 32768 1:0.00073852585 2:0.06489374 3:0.9969615 4:0.04308172 
-0 0 24586.37436176188 1:0.10216023 2:0.39758792 3:0.87221544 4:0.26594616 
-0 0 32768 1:0.028222 2:0.18325478 3:0.97469119 4:0.1248931 
-0 32768 0 2:0.22664357 3:0.96035414 4:0.16233489 
-0 0 32768 1:0.010498658 2:0.009846685 3:0.99987179 4:0.0070166874 
-0 0 32768 1:0.0079219108 2:0.015476963 3:0.99978707 4:0.011113971 
-26458.15720206297 0 0 2:0.79460736 4:0.60712366 
-0 0 32768 1:0.027216283 2:0.0067956223 3:0.99959304 4:0.005180759 
-0 0 32768 1:-0.00011596909 2:0.0084569621 3:0.99994346 4:0.0064448637 
-0 0 32768 1:-0.0037033294 2:0.01183029 3:0.99988238 4:0.0090306521 
-0 0 32768 1:-0.014326963 2:0.0075344373 3:0.99985325 4:0.0056078198 
-0 0 32768 1:-0.015565951 2:0.0046449022 3:0.99986226 4:0.003404171 
-0 32768 32768 1:-0.0014029461 2:0.0049846377 3:0.99997975 4:0.003699759 
-0 4544.870339468554 32768 1:-0.0023414236 2:0.011001678 3:0.99990466 4:0.0080097452 
-32768 32768 32768 2:0.82737204 4:0.56165426 
-0 6060.799333986382 32768 2:0.0024217801 3:0.99999572 4:0.0016435221 
-32768 32768 32768 1:0.00075848196 2:0.82692155 3:0.035836301 4:0.56117371 
-32768 32768 32768 1:0.0039642115 2:0.82045165 3:0.13000953 4:0.55672335 
-32768 32768 32768 1:0.0015962932 2:0.82473682 3:0.080800058 4:0.5597124 
-32768 32768 32768 1:0.0030483644 2:0.82417755 3:0.081179433 4:0.56047477 
-32768 32768 32768 1:0.010240368 2:0.80824561 3:0.21133854 4:0.54951815 
-32768 32768 32768 1:0.0010470087 2:0.80434607 3:0.23232509 4:0.54685588 
-32768 32768 32768 1:0.0040480386 2:0.82274668 3:0.10119961 4:0.55931222 
-32768 32768 32768 1:-2.7690664e-005 2:0.82282115 3:0.10079972 4:0.55928952 
-32768 32768 32768 2:0.52134637 3:0.77653614 4:0.35382141 
-32768 0 32768 1:0.0063306099 2:0.055381393 3:0.99773854 4:0.037558458 
-32768 0 32768 1:0.044817437 2:0.58104932 3:0.71111058 4:0.39331263 
-0 0 20984.75732607495 1:0.077031322 2:0.57034596 3:0.72071216 4:0.38645265 
-0 0 32768 1:0.061878727 2:0.64472785 3:0.62414896 4:0.4369612 
-32768 0 32768 1:0.0050607166 2:0.078949181 3:0.99542888 4:0.053504703 
-0 0 32768 1:0.034550539 2:0.13832493 3:0.98534279 4:0.093659318 
-32768 0 32768 1:0.055497977 2:0.48451912 3:0.80812188 4:0.33030324 
-0 0 32768 1:0.027373771 2:0.094695461 3:0.99308303 4:0.063792919 
-32768 32768 32768 1:0.0059822098 2:0.1973516 3:0.97124627 4:0.13303102 
-0 0 32768 1:0.0090922308 2:0.0079098169 3:0.99991376 4:0.0052195753 
-32768 0 32768 1:0.0015631028 2:0.014721317 3:0.99984324 4:0.0097124768 
-32768 32768 32768 1:0.013777491 2:0.35707252 3:0.90448959 4:0.23282606 
-0 0 32768 1:0.014641495 2:0.010870721 3:0.99980642 4:0.0073871958 
-0 0 32768 1:0.0070706544 2:0.012823999 3:0.9998544 4:0.0087590154 
-32768 32768 32768 1:0.022701985 2:0.37899002 3:0.88853525 4:0.25759717 
-32768 32768 32768 2:0.82259028 4:0.56863453 
-0 0 32768 1:0.019883554 2:0.017449386 3:0.99957834 4:0.01197108 
-0 0 32768 1:0.0018442207 2:0.014359851 3:0.99984447 4:0.010071624 
-32768 0 10041.31360379802 2:0.8037952 4:0.5949061 
-9590.874141785849 0 21065.6040967808 1:0.040051636 2:0.74650737 3:0.3656086 4:0.55448442 
-7590.183906078712 0 0 2:0.64170551 3:0.60031692 4:0.47731923 
-0 0 7543.432572691516 1:0.0038326766 2:0.46096763 3:0.81844256 4:0.34299553 
-32768 0 32768 2:0.80938188 4:0.5872827 
-0 0 32768 1:-0.015203096 2:0.012452817 3:0.99976551 4:0.0090950157 
-0 0 32768 1:-0.028138961 2:0.026025307 3:0.99909295 4:0.018551364 
-0 0 32768 1:-0.0086857553 2:0.027799259 3:0.99938639 4:0.01945748 
-0 0 1308.517894360639 1:-0.14974692 2:0.17982691 3:0.96404168 4:0.12594353 
-0 0 32768 1:-0.031028428 2:0.022363542 3:0.99914874 4:0.015456588 
-0 0 32768 1:-0.0034611909 2:0.023481098 3:0.99958626 4:0.016246816 
-0 0 32768 1:-0.051466106 2:0.12818843 3:0.9864704 4:0.088289959 
-0 0 32768 1:-0.032639643 2:0.12040403 3:0.98869187 4:0.083222044 
-0 0 32768 1:-0.027452249 2:0.16037334 3:0.98038255 4:0.1112512 
-0 0 32768 1:-0.031997125 2:0.13180713 3:0.98654234 4:0.091308708 
-0 0 32768 1:0.0050453595 2:0.021108155 3:0.99965504 4:0.014791816 
-0 0 32768 1:-0.018881768 2:0.015393931 3:0.99964575 4:0.010718305 
-0 0 32768 1:-0.025690521 2:0.02846402 3:0.9990646 4:0.019992924 
-0 0 32768 1:-0.0068339758 2:0.022760485 3:0.99958942 4:0.016008044 
-0 0 32768 1:-0.019419001 2:0.011867055 3:0.99970548 4:0.0084275274 
-0 0 32768 1:-0.012930326 2:0.01515462 3:0.99974359 4:0.010765694 
-0 0 32768 1:-0.024536937 2:0.022907719 3:0.99930612 4:0.016138536 
-32768 32768 32768 2:0.82560353 4:0.56425067 
-0 0 32768 1:-0.0085689486 2:0.001919813 3:0.99996058 4:0.0013121063 
-25366.74490345917 32768 32768 1:3.0845958e-005 2:0.0016015522 3:0.99999812 4:0.0010946781 
-32768 32768 32768 1:-0.00017132871 2:0.65721057 3:0.60516815 4:0.44927248 
-32768 32768 32768 1:-0.0015906626 2:0.82524524 3:0.022976024 4:0.56430476 
-32768 32768 32768 1:-0.011640818 2:0.77055553 3:0.3580364 4:0.52717986 
-32768 32768 32768 1:-0.0085257275 2:0.77433514 3:0.34598604 4:0.52974151 
-32768 32768 32768 1:-0.0025803971 2:0.78244556 3:0.31769441 4:0.53557684 
-32768 32768 32768 1:-0.0018125061 2:0.82283948 3:0.07652334 4:0.56309509 
-32768 32768 32768 1:0.00032578018 2:0.82185965 3:0.090018439 4:0.56253293 
-32768 32768 32768 1:0.0049800325 2:0.76847133 3:0.36424457 4:0.5260731 
-32768 32768 32768 1:0.0061780899 2:0.81476234 3:0.15848958 4:0.55767842 
-32768 0 32768 1:0.033643094 2:0.59626773 3:0.69052019 4:0.40806225 
-32768 204.1594059755338 32768 1:0.044548353 2:0.48908127 3:0.80466085 4:0.3336703 
-32768 0 32768 1:0.021274473 2:0.29321629 3:0.9347365 4:0.1995978 
-0 0 10421.94235072501 1:0.0026173587 2:0.049467769 3:0.99820505 4:0.033656503 
-32768 7197.677943150247 32768 1:0.00074566251 2:0.073248602 3:0.99605428 4:0.050099441 
-0 0 32768 1:0.014908665 2:0.0029573743 3:0.99988259 4:0.0019491939 
-31128.55395793118 0 32768 1:0.004208998 2:0.003872008 3:0.99998041 4:0.0025453092 
-32768 0 32768 1:0.0024395414 2:0.015214739 3:0.99983336 4:0.009788858 
-32768 0 32768 1:0.012476854 2:0.022374879 3:0.99956757 4:0.014434559 
-32768 0 32768 1:0.0015297623 2:0.02848771 3:0.99942766 4:0.018178715 
-28332.4634449235 0 32768 1:-0.047413074 2:0.081355988 3:0.99423319 4:0.05131827 
-32768 0 32768 1:0.0045231547 2:0.081527655 3:0.99531435 4:0.051789185 
-0 0 32768 1:0.0392611 2:0.00736685 3:0.99919083 4:0.0046890638 
-32768 0 32768 1:0.0028248701 2:0.0050826468 3:0.99997785 4:0.0032392676 
-0 0 32768 1:-0.024523628 2:0.03694373 3:0.9987316 4:0.023852444 
-32768 0 32768 1:0.0023999885 2:0.079278003 3:0.99557096 4:0.050474763 
-0 0 32768 1:0.027779424 2:0.023742874 3:0.99920833 4:0.015725421 
-0 0 32768 1:0.034652462 2:0.019164194 3:0.99913449 4:0.012735946 
-15034.78799813622 0 32768 1:0.0025433879 2:0.021264343 3:0.9996703 4:0.014164916 
-0 0 32768 1:0.045597633 2:0.16225919 3:0.98010027 4:0.10486307 
-30362.82897384973 0 32768 1:0.023913497 2:0.043366092 3:0.9983793 4:0.028040945 
-32768 0 32768 1:0.0021689083 2:0.02208059 3:0.99965084 4:0.014350457 
-32768 0 32768 1:0.013269593 2:0.12587109 3:0.98849474 4:0.082816324 
-0 0 32768 1:0.015895492 2:0.010753001 3:0.9997907 4:0.0070890653 
-32768 0 32768 1:0.00082727504 2:0.010587166 3:0.99991902 4:0.0070123449 
-0 0 32768 1:0.064305315 2:0.59227275 3:0.69585812 4:0.40107267 
-0 0 32768 1:-0.03884364 2:0.038744275 3:0.998149 4:0.026241768 
-32768 32768 32768 2:0.73852888 3:0.44054703 4:0.51038555 
-32768 32768 32768 2:0.25362371 3:0.95129061 4:0.17527464 
-0 0 32768 1:0.013893534 2:0.0066986424 3:0.99987026 4:0.0046427065 
-0 1686.389133509651 0 2:0.26419377 3:0.94524427 4:0.19161137 
-0 4362.344114750687 32768 1:-0.0069619016 2:0.0093535596 3:0.99990895 4:0.0067923066 
-0 0 32768 1:-0.011263962 2:0.01225402 3:0.99982205 4:0.0088781748 
-0 0 32768 1:-0.031371553 2:0.036230696 3:0.99853082 4:0.025285673 
-0 0 32768 1:-0.039729049 2:0.22440822 3:0.96103911 4:0.15641736 
-0 0 32768 1:-0.0066338009 2:0.015326206 3:0.9998022 4:0.010800728 
-0 0 32768 1:-0.019217639 2:0.12590656 3:0.98792417 4:0.08822729 
-32768 32768 32768 2:0.82830119 4:0.56028308 
-0 0 32768 2:0.003400311 3:0.99999156 4:0.0023066301 
-0 0 32768 1:-0.013896107 2:0.029506453 3:0.99926714 4:0.020036281 
-32768 32768 32768 2:0.15804316 3:0.98154573 4:0.10765842 
-0 0 32768 1:-0.013857817 2:0.020747812 3:0.99958876 4:0.014134808 
-0 0 32768 1:-0.0053000675 2:0.048915774 3:0.99823352 4:0.033301466 
-21737.31923785538 0 32768 1:-0.042888248 2:0.66310961 3:0.59530996 4:0.45172149 
-24402.02848915546 32768 32768 1:-0.037309116 2:0.80598809 3:0.21954259 4:0.54844534 
-0 0 32768 1:-0.048897365 2:0.19363449 3:0.97096705 4:0.13167273 
-32768 22408.34294707743 32768 1:-0.0088575058 2:0.16816924 3:0.9790604 4:0.11437389 
-32768 32768 32768 1:-0.016700478 2:0.75684592 3:0.40234485 4:0.51480479 
-32768 32768 32768 1:-0.0070183163 2:0.8213185 3:0.1160509 4:0.55849696 
-0 0 32768 1:0.064535971 2:0.47768929 3:0.81378561 4:0.32465526 
-32768 0 32768 1:0.011795614 2:0.10750687 3:0.99145444 4:0.072946701 
-0 0 32768 1:0.022669883 2:0.22323552 3:0.96257763 4:0.1519746 
-0 0 5535.14127416522 1:0.11891889 2:0.28419709 3:0.93172251 4:0.19231088 
-356.6988811250933 0 329.4197360935329 1:0.26253412 2:0.63170519 3:0.59248096 4:0.42543002 
-32768 0 32768 2:0.030812516 3:0.99932248 4:0.020128884 
-0 0 32768 1:0.0073702065 2:0.0040019218 3:0.99996153 4:0.0025695526 
-32768 0 32768 2:0.84335722 4:0.53735334 
-0 0 32768 1:0.0076789387 2:0.0032797915 3:0.99996261 4:0.0022500126 
-0 0 32768 1:0.0054484684 2:0.014066381 3:0.99984011 4:0.0096023446 
-0 0 32768 1:-0.035392301 2:0.028650922 3:0.99877115 4:0.01956258 
-32768 0 32768 1:0.000349963 2:0.0041156893 3:0.99998775 4:0.0027287942 
-0 0 32768 2:0.015463349 3:0.99982618 4:0.010415881 
-0 0 32768 1:0.029563739 2:0.020000059 3:0.99927234 4:0.013445569 
-0 0 32768 1:0.00086547904 2:0.025631514 3:0.99952026 4:0.017364608 
-32768 32768 32768 1:0.0036414382 2:0.15525575 3:0.98203602 4:0.1071804 
-0 0 32768 1:0.025945796 2:0.23812557 3:0.95692969 4:0.16403838 
-0 0 32768 1:0.022641833 2:0.022065629 3:0.9993785 4:0.01559071 
-0 0 32768 1:0.031838351 2:0.013049145 3:0.99936524 4:0.00922827 
-0 0 8831.38620950425 1:0.14242014 2:0.061557367 3:0.9869288 4:0.04357448 
-0 0 32768 1:0.013167308 2:0.015708831 3:0.99972713 4:0.011203934 
-32768 0 32768 1:0.0071043274 2:0.79027417 3:0.17874157 4:0.58606119 
-5475.173899525105 0 0 1:0.0099512543 2:0.55887797 3:0.71758994 4:0.4154769 
-0 0 3301.788612560569 1:-0.019748569 2:0.48505204 3:0.79749899 4:0.35823158 
-0 0 32768 1:-0.013267643 2:0.010152811 3:0.99983253 4:0.0074706161 
-0 0 32768 1:-0.005058451 2:0.01892823 3:0.99971126 4:0.013911219 
-0 0 32768 1:0.00079273794 2:0.016443704 3:0.99979244 4:0.012001845 
-0 0 32768 1:-0.021083164 2:0.012978513 3:0.99964962 4:0.0093646693 
-0 0 32768 1:-0.0051014933 2:0.016977622 3:0.99976891 4:0.012159799 
-0 0 32768 2:0.028079007 3:0.99941971 4:0.01928267 
-0 0 32768 1:-0.021506965 2:0.016141474 3:0.99957682 4:0.01109389 
-0 0 32768 1:-0.012861576 2:0.031068676 3:0.999207 4:0.021323426 
-0 0 32768 1:-0.032560995 2:0.038923793 3:0.99835526 4:0.026673819 
-32768 32768 32768 2:0.26906212 3:0.94520368 4:0.18492048 
-0 0 32768 1:-0.015118826 2:0.0054488281 3:0.99986384 4:0.0037463948 
-0 32768 32768 1:-0.003060153 2:0.00653163 3:0.99996402 4:0.0044649165 
-0 0 32768 1:-0.05394325 2:0.093361756 3:0.99207313 4:0.064533774 
-32768 32768 32768 2:0.14816864 3:0.98363951 4:0.10246647 
-0 0 32768 1:-0.045340759 2:0.21331721 3:0.96455325 4:0.14858337 
-0 0 32768 1:-0.015362191 2:0.10547225 3:0.99157188 4:0.073653358 
-0 0 32768 1:-0.037109896 2:0.18224008 3:0.97424239 4:0.12752713 
-0 0 32768 1:-0.011961647 2:0.76538011 3:0.35873766 4:0.53418863 
-32768 0 32768 2:0.83616118 4:0.5484838 
-0 0 32768 1:-0.0092288385 2:0.0014969352 3:0.99995581 4:0.00098228611 
-32768 0 32768 1:-6.2945559e-006 2:0.0012476181 3:0.99999889 4:0.00081874389 
-32768 0 32768 1:-9.2946154e-005 2:0.82497926 3:0.16203489 4:0.54143689 
-32768 0 32768 1:-0.00044197758 2:0.8358048 3:0.021975132 4:0.54858658 
-32768 0 32768 1:-0.00062633179 2:0.83592823 3:0.0072632242 4:0.54879035 
-32768 25821.17641310325 32768 1:-0.00024294263 2:0.83467347 3:0.050448492 4:0.54842966 
-32768 32768 32768 1:-0.0063650362 2:0.80527992 3:0.2672887 4:0.52918852 
-32768 32768 32768 1:0.00040395194 2:0.80303058 3:0.27636259 4:0.52798242 
-32768 0 32768 1:-0.0013683745 2:0.8332002 3:0.074669475 4:0.54790512 
-32768 32768 32768 1:-0.00040276352 2:0.83218893 3:0.046943452 4:0.55250134 
-32768 32768 32768 1:-0.0020756355 2:0.83027092 3:0.054044321 4:0.55472975 
-32768 32768 32768 2:0.82535926 3:0.093100463 4:0.55687916 
-32768 0 32768 1:0.011613713 2:0.092548183 3:0.99367087 4:0.06259513 
-0 0 32768 1:0.029761249 2:0.17594039 3:0.97677592 4:0.1186088 
-0 0 32768 1:0.057178296 2:0.3218094 3:0.91983408 4:0.21696685 
-24665.65492839056 0 32768 1:0.019933131 2:0.20765696 3:0.96790665 4:0.14013557 
-0 0 29385.94569909389 1:0.03347622 2:0.20003566 3:0.96972173 4:0.1360325 
-32768 0 32768 1:0.020007017 2:0.30930803 3:0.92724767 4:0.21009528 
-32768 19145.31340709183 32768 1:0.030315218 2:0.69445427 3:0.5429279 4:0.47121497 
-12724.82857137858 0 32768 1:0.073984469 2:0.72593158 3:0.48458202 4:0.48242088 
-32768 0 32768 1:0.0087813562 2:0.15343287 3:0.9830409 4:0.10005909 
-0 0 29949.90018166344 1:0.055161403 2:0.038990385 3:0.99742033 4:0.02428299 
-32768 32768 32768 2:0.82564878 4:0.56418444 
-0 0 32768 1:0.015191139 2:0.00091180681 3:0.99988399 4:0.00063740472 
-32768 0 32768 1:0.0013616949 2:0.0010078365 3:0.99999833 4:0.00068391239 
-0 0 32768 1:-0.00020997719 2:0.0086057246 3:0.99994618 4:0.0057905792 
-0 0 32768 1:0.0096960376 2:0.038489891 3:0.99887517 4:0.025940641 
-32768 0 32768 1:0.0065120113 2:0.13740051 3:0.98614139 4:0.092757005 
-22155.32912323854 0 32768 1:0.056662073 2:0.54161194 3:0.75356235 4:0.36822507 
-7468.353797505673 0 32768 1:0.019733421 2:0.48655275 3:0.79621745 4:0.35904706 
-32768 0 22915.02761236751 1:0.0018634667 2:0.67065179 3:0.55070018 4:0.49694267 
-0 0 32768 1:0.012282716 2:0.74293713 3:0.38089855 4:0.55028162 
-0 0 28137.29847389239 1:0.063715376 2:0.19637109 3:0.96754971 4:0.14569247 
-28583.94090925618 0 10465.01321472927 2:0.79338702 3:0.15461911 4:0.58875289 
-0 0 32768 1:-0.019212188 2:0.017339525 3:0.99958433 4:0.012704456 
-32768 0 32768 2:0.81727583 4:0.57624667 
-0 0 32768 1:-0.020673053 2:0.017706499 3:0.99955281 4:0.012380721 
-0 0 32768 1:-0.038174097 2:0.13633468 3:0.9853895 4:0.094673753 
-0 0 32768 1:-0.034490667 2:0.030957686 3:0.99869566 4:0.021423988 
-0 0 32768 1:-0.015007996 2:0.025072038 3:0.99942299 4:0.01731567 
-0 0 32768 1:-0.016580992 2:0.08590631 3:0.99439102 4:0.059427857 
-0 0 9787.952980924172 1:-0.082003519 2:0.27208089 3:0.93998016 4:0.188904 
-0 0 32768 1:-0.080125724 2:0.5042737 3:0.78538789 4:0.34993395 
-0 0 32768 1:-0.059691859 2:0.046019174 3:0.99664738 4:0.031829396 
-0 0 32768 1:-0.045237061 2:0.051727225 3:0.99699448 4:0.035775735 
-0 0 32768 1:-0.024747298 2:0.088621222 3:0.99384274 4:0.06172895 
-0 0 32768 1:-0.027448424 2:0.12458342 3:0.98799404 4:0.087139742 
-0 0 32768 1:-0.027893375 2:0.015467508 3:0.99943217 4:0.010864846 
-0 32768 32768 1:-0.0019220532 2:0.011158052 3:0.99990517 4:0.0078386733 
-0 0 32768 1:-0.025007523 2:0.10854132 3:0.99092232 4:0.075275174 
-0 0 32768 1:-0.028004144 2:0.19368415 3:0.97130397 4:0.13516961 
-0 0 32768 1:-0.017562454 2:0.14006108 3:0.98520945 4:0.097143164 
-0 0 32768 1:-0.031471506 2:0.064460873 3:0.99644124 4:0.044262784 
-32768 0 32768 2:0.00099778159 3:0.99999926 4:0.00068959247 
-32768 32768 32768 1:-0.0095883491 2:0.3741293 3:0.89052226 4:0.25866085 
-32768 32768 32768 1:-0.0024389613 2:0.56846003 3:0.72272269 4:0.39308924 
-32768 32768 32768 1:3.6563798e-006 2:0.74938261 3:0.41208836 4:0.51827492 
-32768 32768 32768 1:0.001557663 2:0.79420984 3:0.2598434 4:0.54928109 
-8398.952312081623 0 22686.63976973278 1:0.035938656 2:0.29992619 3:0.9305111 4:0.20712745 
-0 0 12818.28318101374 1:0.060316562 2:0.64751015 3:0.61426519 4:0.44695726 
-32768 32768 32768 2:0.32941135 3:0.91678073 4:0.22583459 
-0 0 32768 1:0.03201083 2:0.14974336 3:0.98293652 4:0.10192167 
-0 0 32768 1:0.0095333305 2:0.050111272 3:0.99812234 4:0.033908392 
-0 0 32768 1:0.088587532 2:0.44980295 3:0.8358497 4:0.30196828 
-32768 0 32768 1:0.016035272 2:0.24968162 3:0.95472504 4:0.16094117 
-6043.205478961712 0 32768 1:0.031312486 2:0.15118156 3:0.9831651 4:0.097724332 
-0 0 32768 1:-0.012124654 2:0.069869408 3:0.99634219 4:0.047681194 
-0 0 32768 2:0.010404561 3:0.99992044 4:0.0071311257 
-0 0 32768 1:0.022977804 2:0.028299167 3:0.99914828 4:0.019336333 
-0 0 24064.36945742808 1:0.1280544 2:0.33123533 3:0.90733038 4:0.22502624 
-0 0 32768 1:0.028612385 2:0.14177288 3:0.98475402 4:0.096650403 
-0 0 32768 1:0.013109519 2:0.004605454 3:0.99989834 4:0.0031985068 
-0 0 32768 1:0.020886915 2:0.006705366 3:0.99974785 4:0.0047973528 
-0 32768 32768 1:-0.0072284663 2:0.0044580551 3:0.99995885 4:0.0031908379 
-0 0 32768 1:-0.00013138071 2:0.011602752 3:0.99989765 4:0.0083699957 
-0 0 32768 1:0.017578089 2:0.018443173 3:0.99958625 4:0.013348405 
-0 0 32768 1:0.038251698 2:0.015962545 3:0.99907453 4:0.011492773 
-0 0 32768 1:-0.00056608984 2:0.0062019937 3:0.99997047 4:0.0045032811 
-0 0 6711.074950156855 1:-0.0113007 2:0.71905346 3:0.43748338 4:0.53985434 
-0 0 32768 1:-0.0054173033 2:0.017546981 3:0.9997471 4:0.012980562 
-0 0 32768 1:-0.029463058 2:0.014723963 3:0.9993996 4:0.01075034 
-0 0 32768 1:-0.029160297 2:0.024451456 3:0.99912023 4:0.017623197 
-0 0 32768 2:0.14074754 3:0.985077 4:0.099062818 
-0 0 32768 1:-0.014001462 2:0.0090515729 3:0.99984062 4:0.0063847334 
-0 0 32768 1:-0.0058772 2:0.021971875 3:0.99961969 4:0.015594145 
-0 0 32768 1:-0.012206647 2:0.016142288 3:0.99973056 4:0.011367575 
-0 22304.95231786955 0 2:0.21071466 3:0.96583542 4:0.15086839 
-0 0 32768 1:-0.022208617 2:0.011893943 3:0.99964587 4:0.008570009 
-0 32768 32768 1:-0.0044181451 2:0.014391502 3:0.99983308 4:0.010352631 
-15990.91272256351 0 32768 1:-0.014361818 2:0.35068042 3:0.90220412 4:0.25068848 
-32768 32768 32768 2:0.82464877 4:0.56564513 
-0 32768 32768 1:-0.0079730512 2:0.0025734639 3:0.99996335 4:0.0017643898 
-0 30485.47295768913 32768 1:-7.5955462e-005 2:0.0025683724 3:0.99999515 4:0.0017626841 
-0 0 32768 1:-0.044116092 2:0.68853184 3:0.54872721 4:0.47209757 
-32768 0 32768 1:0.00094341785 2:0.010341109 3:0.99992337 4:0.006739664 
-32768 0 32768 1:0.056245084 2:0.65402685 3:0.62217913 4:0.42658938 
-0 0 32768 1:0.081108474 2:0.36291837 3:0.89798011 4:0.23525178 
-32768 4273.141547054732 32768 1:-0.0022979832 2:0.043167608 3:0.99867675 4:0.027857279 
-32768 0 32768 1:0.015561128 2:0.12474878 3:0.98884466 4:0.079886394 
-32768 0 32768 1:0.010725257 2:0.016782242 3:0.9997454 4:0.010604347 
-32768 0 32768 1:-0.0006938408 2:0.064981935 3:0.99701524 4:0.041683036 
-0 0 32768 1:0.04340298 2:0.14227965 3:0.98455216 4:0.092356556 
-0 0 32768 1:-0.014883054 2:0.0077629928 3:0.99984609 4:0.0051015706 
-0 0 32768 1:0.010558991 2:0.0025478657 3:0.99993961 4:0.001670858 
-32768 0 32768 1:0.00036618696 2:0.0073767407 3:0.99996101 4:0.0048403939 
-0 0 32768 1:0.010006317 2:0.0032761768 3:0.99994203 4:0.0022523676 
-0 0 32768 1:0.0021057871 2:0.00374524 3:0.99998744 4:0.0025810852 
-0 0 32768 1:0.026098104 2:0.01123799 3:0.99956554 4:0.007830916 
-0 0 32768 1:-2.6293008e-005 2:0.013192309 3:0.99986916 4:0.0093603708 
-0 0 32768 1:0.013645321 2:0.0097182879 3:0.99983376 4:0.0071983352 
-0 0 32768 1:0.0094422587 2:0.014984173 3:0.99978137 4:0.011114413 
-8109.63570729022 0 32768 1:0.02002687 2:0.76897328 3:0.28521792 4:0.57177771 
-0 0 5961.763144259872 1:0.021497473 2:0.50659786 3:0.77538827 4:0.37639008 
-0 0 18269.4514386105 1:0.012890732 2:0.75660956 3:0.33442135 4:0.56172784 
-2015.349618519704 0 0 1:0.036950937 2:0.69611944 3:0.49719909 4:0.51657082 
-0 0 32768 1:-0.00015258108 2:0.74489855 3:0.37443357 4:0.55220072 
-32768 0 32768 2:0.81159124 4:0.58422569 
-0 0 32768 1:-0.020125522 2:0.011632174 3:0.99969486 4:0.0083574939 
-0 0 32768 1:-0.0057048809 2:0.015863436 3:0.99979289 4:0.011401158 
-0 0 32768 1:-0.031134521 2:0.026342779 3:0.99899498 4:0.018593667 
-0 0 32768 1:-0.014067007 2:0.0016011671 3:0.99989912 4:0.0011383162 
-0 32768 32768 1:-0.0012885745 2:0.0017487139 3:0.99999687 4:0.0012413424 
-0 0 32768 1:-0.013996629 2:0.017185372 3:0.99967856 4:0.0123097 
-0 -32768 32768 1:-0.011612807 2:0.013583945 3:0.99979749 4:0.009251479 
-32768 -32768 32768 1:0.0044064395 2:0.21168962 3:0.96664332 4:0.14411379 
-0 -0 32768 1:0.0013114222 2:0.65693431 3:0.60782526 4:0.44607629 
-0 -0 32768 1:0.0032853688 2:0.82058308 3:0.12723833 4:0.55717414 
-0 -0 32768 1:-6.1165023e-005 2:0.82732767 3:0.0047349745 4:0.56169965 
-0 -0 32768 1:0.00042774792 2:0.82734382 3:0.0046749256 4:0.56167621 
-0 -0 32768 1:0.00062117612 2:0.82737108 3:0.0026637441 4:0.56164902 
-0 -0 32768 1:0.0012115831 2:0.75533572 3:0.40823854 4:0.51264781 
-0 -0 32768 1:-0.00091103892 2:0.82736984 3:0.014408672 4:0.56147192 
-0 -0 32768 1:-0.00061649636 2:0.82744236 3:0.009263311 4:0.5614739 
-0 -0 32768 1:-0.00026292898 2:0.82747481 3:0.003138257 4:0.56149401 
-0 -0 32768 1:0.0003067368 2:0.82752383 3:0.0084576696 4:0.5613668 
-0 -0 32768 1:-0.0013872915 2:0.82748686 3:0.013615298 4:0.56131826 
-0 -0 32768 1:-0.002275933 2:0.8203441 3:0.13187815 4:0.55645173 
-0 -0 32768 1:0.00073187993 2:0.81052908 3:0.20215348 4:0.54970541 
-0 -0 32768 1:-0.0013622863 2:0.82646054 3:0.052299386 4:0.56055856 
-0 -0 32768 1:-0.0024389738 2:0.82700207 3:0.04008414 4:0.56076277 
-0 -0 32768 1:-0.00022953583 2:0.82591243 3:0.066723603 4:0.5598362 
-0 -0 32768 1:-0.0044963663 2:0.79577033 3:0.2754572 4:0.53930761 
-0 -0 32768 1:-0.0013540126 2:0.81361638 3:0.18443118 4:0.55137255 
-0 -32768 32768 1:0.0014098935 2:0.82138697 3:0.12416786 4:0.55669004 
-0 -0 32768 1:-0.0029489855 2:0.81196984 3:0.19449759 4:0.55033351 
-0 -0 32768 1:-0.00087654354 2:0.82337126 3:0.1032453 4:0.55803172 
-0 -0 32768 1:-0.00026252401 2:0.82728471 3:0.036427562 4:0.56060055 
-0 -0 32768 1:-0.00060845843 2:0.82777025 3:0.012126342 4:0.56093582 
-0 -0 32768 1:-0.00048294399 2:0.82705283 3:0.043001871 4:0.56047679 
-16385.28866485669 -32768 32768 1:-0.00105228 2:0.8234322 3:0.10271084 4:0.55804013 
-0 -0 32768 1:-0.00057929122 2:0.82668851 3:0.05168867 4:0.56028034 
-0 -0 32768 1:-0.00059715179 2:0.82733155 3:0.033544176 4:0.5607111 
-0 -0 32768 1:-0.0015692296 2:0.82716093 3:0.039414259 4:0.56057902 
-0 -16512.07769015631 32768 1:-0.0060663167 2:0.81737878 3:0.15809311 4:0.55395099 
-0 -0 32768 1:-0.0011067202 2:0.80080248 3:0.25336784 4:0.54269596 
-0 -32768 32768 2:0.82239801 3:0.1143017 4:0.55731197 
-0 -0 32768 1:-0.0037873629 2:0.78945199 3:0.30088103 4:0.53499703 
-0 -0 32768 1:-0.0004372451 2:0.81361284 3:0.18448853 4:0.55136008 
-0 -0 32768 1:-9.3599041e-005 2:0.82764219 3:0.020781075 4:0.56087123 
-0 -0 32768 1:-0.00055347139 2:0.82758026 3:0.02313853 4:0.56087004 
-0 -0 32768 1:-0.00021176537 2:0.82753342 3:0.024816415 4:0.56086767 
-0 -0 32768 1:-0.00050112493 2:0.824048 3:0.094913477 4:0.55851238 
-0 -0 32768 1:-0.00013470215 2:0.82753032 3:0.024390729 4:0.56089093 
-0 -0 32768 1:-0.00046618693 2:0.82761092 3:0.020490335 4:0.56092789 
-0 -0 32768 1:-0.0014442966 2:0.82651855 3:0.055339217 4:0.56018084 
-0 -0 32768 1:-0.00010426143 2:0.82624137 3:0.060884085 4:0.56001636 
-0 -32768 32768 1:-0.0036333371 2:0.81982017 3:0.13817539 4:0.55568809 
-0 -0 32768 1:0.0023836031 2:0.76802805 3:0.37293802 4:0.52061931 
-0 -0 32768 1:-0.00034086123 2:0.82498795 3:0.081386575 4:0.55925932 
-0 -0 32768 1:-0.0013429735 2:0.82739089 3:0.028842348 4:0.56088379 
-32768 -0 32768 1:0.0051889721 2:0.38697496 3:0.88396131 4:0.26236588 
-3652.410507826033 -0 32768 1:0.00021811306 2:0.54082727 3:0.75699614 4:0.36669151 
-0 -0 32768 1:0.00053308601 2:0.75837118 3:0.40060916 4:0.51418399 
-0 -0 32768 1:0.001319154 2:0.80377639 3:0.23852784 4:0.54501949 
-0 -0 32768 1:0.0031277916 2:0.80362819 3:0.23930351 4:0.54489061 
-0 -0 32768 1:0.0026014492 2:0.79022585 3:0.29733857 4:0.5358415 
-0 -0 32768 1:0.0021189279 2:0.82320536 3:0.10392927 4:0.55814617 
-0 -0 20171.74830385033 1:0.00093948008 2:0.82583033 3:0.067159167 4:0.55990448 
-0 -0 32768 1:-0.00042890936 2:0.82275828 3:0.1087349 4:0.55789367 
-0 -0 32768 1:0.00018953354 2:0.81731339 3:0.157641 4:0.55420945 
-0 -0 32768 1:-0.0018792003 2:0.81657198 3:0.16366835 4:0.55355157 
-0 -0 32768 1:0.0020510095 2:0.81733 3:0.15813248 4:0.55404114 
-0 -0 32768 1:-0.001286479 2:0.81863515 3:0.1476822 4:0.55499982 
-0 -32768 32768 1:0.0039533772 2:0.81447761 3:0.17791149 4:0.55223012 
-0 -0 32768 1:0.0026912045 2:0.61859222 3:0.66447087 4:0.41930286 
-0 -0 32768 1:0.0003798875 2:0.69299786 3:0.54689602 4:0.46974308 
-0 -32768 32768 1:0.0021604797 2:0.82006727 3:0.13565384 4:0.55595237 
-0 -0 32768 1:-0.0013545057 2:0.8113592 3:0.19803796 4:0.54997762 
-32768 -32768 32768 1:-6.4355326e-005 2:0.061759674 3:0.99721167 4:0.041888152 
-32768 -32768 32768 1:-6.1360026e-006 2:0.10210159 3:0.99236017 4:0.069257127 
-0 -0 32768 1:-0.0028135114 2:0.8121615 3:0.19161773 4:0.55106118 
-0 -0 32768 1:-0.0017568559 2:0.81865144 3:0.1455708 4:0.55553207 
-32768 -32768 32768 2:0.82527087 4:0.5647371 
-32768 -32768 32768 1:-0.0019837982 2:0.00051160223 3:0.99999784 4:0.00035009175 
-32768 -32768 32768 1:-2.2582579e-007 2:0.0006821249 3:0.99999966 4:0.00046674659 
-32768 -32768 0 1:-0.00065561438 2:0.82506843 3:0.023066955 4:0.5645614 
-32768 -32768 32768 1:-0.00072269981 2:0.82528569 3:0.0057025054 4:0.56468619 
-32768 -0 0 1:-0.0022165972 2:0.80192086 3:0.23622115 4:0.54874183 
-32768 -32768 0 1:-0.00077185198 2:0.82394044 3:0.05762135 4:0.56373871 
-0 -32768 0 1:0.00076100427 2:0.82099103 3:0.10216063 4:0.56172622 
-32768 -32768 0 1:-0.00014870207 2:0.82357922 3:0.064600032 4:0.5635105 
-32768 -32768 0 1:-0.00018700186 2:0.82043308 3:0.10860902 4:0.56133199 
-0 -32768 0 1:0.00098671954 2:0.82250051 3:0.083328444 4:0.56262626 
-32768 -32768 0 1:0.00032480354 2:0.82499493 3:0.029255527 4:0.56438229 
-32768 -32768 0 1:0.00017015045 2:0.82519978 3:0.018172045 4:0.56454855 
-32768 -32768 0 1:-0.00034043535 2:0.82509744 3:0.023350092 4:0.56450764 
-32768 -32768 0 1:0.00092135774 2:0.82463656 3:0.042204244 4:0.56408554 
-32768 -32768 32768 2:0.82554449 4:0.56433704 
-32768 -32768 32768 1:0.00019657408 2:0.14298866 3:0.98488619 4:0.097741508 
-32768 -32768 32768 1:8.5366985e-005 2:0.2926549 3:0.93506966 4:0.19999458 
-32768 -85.68133236759192 0 1:-0.0031632242 2:0.71294114 3:0.50427626 4:0.48724776 
-1721.580777944457 -0 0 1:-0.0012791094 2:0.63598082 3:0.63772537 4:0.43454933 
-32768 -0 0 1:-0.0018655242 2:0.82510811 3:0.037626229 4:0.56371748 
-32768 -32768 32768 1:0.0065302758 2:0.81746563 3:0.14147146 4:0.55829483 
-32768 -0 0 1:0.0038244987 2:0.51722807 3:0.7795776 4:0.35315613 
-0 -0 32768 1:0.0023490235 2:0.62287718 3:0.65661657 4:0.42529187 
-0 -0 32768 1:0.0063755148 2:0.81718305 3:0.14835167 4:0.5569228 
-32768 -0 0 1:0.0058925514 2:0.50967227 3:0.78710903 4:0.34735979 
-0 -0 32768 1:0.0032782143 2:0.64039279 3:0.63195286 4:0.43648815 
-32768 -32768 32768 1:0.0081491216 2:0.32042645 3:0.92171513 4:0.2184072 
-32768 -18821.91793945478 32768 1:0.01128841 2:0.60855128 3:0.67638224 4:0.41478305 
-0 -0 32768 1:0.0099172232 2:0.82199711 3:0.10196379 4:0.56020155 
-0 -32768 32768 1:0.0097251778 2:0.82013103 3:0.12186877 4:0.55896201 
-0 -19647.14724097616 32768 1:0.01250795 2:0.82194722 3:0.10197053 4:0.56022168 
-4909.626836750243 -8175.25187392399 32768 1:0.018976802 2:0.79228268 3:0.28347447 4:0.53997246 
-32768 -32768 32768 1:0.012829281 2:0.19005828 3:0.97311215 4:0.12948364 
-32768 -30758.07680003694 23266.91920459938 1:0.0061364199 2:0.37791994 3:0.88930759 4:0.2574313 
-0 -0 32768 1:0.0034966278 2:0.60731758 3:0.67825168 4:0.41367596 
-0 -0 32768 1:-0.0068855757 2:0.82214208 3:0.10221039 4:0.55998931 
-0 -0 32768 1:-0.0048891627 2:0.82249742 3:0.098229233 4:0.56020095 
-0 -0 32768 1:-0.0042366095 2:0.82092022 3:0.11590604 4:0.55914026 
-0 -32768 32768 1:-0.0093265192 2:0.77442877 3:0.34910649 4:0.52753934 
-10258.85323327763 -0 14690.29852475705 1:-0.006342825 2:0.7222712 3:0.48619028 4:0.49183645 
-32768 -0 32768 1:-0.0072719401 2:0.82316541 3:0.090519932 4:0.56049261 
-0 -0 32768 1:-0.0041294593 2:0.82347967 3:0.086108498 4:0.56075798 
-0 -0 32768 1:-0.0026408267 2:0.82613995 3:0.03163999 4:0.56256974 
-0 -32768 32768 1:-0.0064563089 2:0.79235167 3:0.28483375 4:0.53945053 
-32768 -0 0 1:0.0071266481 2:0.50447323 3:0.7921286 4:0.34349418 
-0 -0 32768 1:0.00020640434 2:0.65845522 3:0.60449446 4:0.44835603 
-32768 -32768 32768 1:-0.0029289868 2:0.0015491128 3:0.99999396 4:0.001049191 
-32768 -32768 32768 1:-1.1239597e-005 2:0.0010320255 3:0.99999922 4:0.00069926015 
-32768 -0 32768 1:-0.01736585 2:0.70683627 3:0.51974255 4:0.47952956 
-0 -32768 32768 1:-0.015653448 2:0.77358459 3:0.35345895 4:0.52572676 
-0 -0 32768 1:-0.015260355 2:0.81335987 3:0.17658943 4:0.55410199 
-26417.40226263283 -32768 32768 1:-0.029085135 2:0.79498671 3:0.26994863 4:0.54247389 
-9851.294606218577 -32768 32768 1:-0.026789857 2:0.81672483 3:0.1448035 4:0.55792007 
-32768 -32768 0 2:0.82472994 3:0.044478962 4:0.56377492 
-0 -32768 32768 1:-0.0097745086 2:0.15369414 3:0.98247143 4:0.1050355 
-32768 -32768 32768 1:0.00042122683 2:0.098402638 3:0.9928727 4:0.067235066 
-32768 -8707.664959313785 32768 1:0.020838191 2:0.78020894 3:0.32687016 4:0.53291245 
-32768 -32768 32768 1:0.018220222 2:0.81142612 3:0.18483046 4:0.55416006 
-32768 -32768 32768 1:0.0048826366 2:0.26172408 3:0.94847312 4:0.17853685 
-32768 -0 32768 1:6.5124345e-005 2:0.36905928 3:0.89466371 4:0.25173814 
-32768 -32768 32768 1:0.017886751 2:0.41399497 3:0.86524633 4:0.2822003 
-0 -0 13.19069945611742 1:0.005501955 2:0.81913662 3:0.13118192 4:0.55836926 
-0 -32768 0 2:0.82603293 4:0.56362185 
-0 -0 4252.11000215983 1:0.0010840067 2:0.45079559 3:0.83794846 4:0.30761101 
-0 -22517.5062953298 32768 2:0.82598132 4:0.56369748 
-0 -32768 32768 1:-0.0010897048 2:0.23092436 3:0.96012373 4:0.15759177 
-32768 -0 32768 1:5.3259502e-005 2:0.37182405 3:0.89294776 4:0.25375417 
-32768 -32768 32768 1:-6.7877745e-006 2:0.0029861215 3:0.99999349 4:0.002027833 
-0 -0 32768 1:3.2553429e-005 2:0.81690813 3:0.15703727 4:0.55497785 
-0 -0 32768 1:0.0018802787 2:0.72548098 3:0.48197685 4:0.49129637 
-0 -0 32768 1:-7.2000241e-005 2:0.78733166 3:0.3094429 4:0.53324849 
-0 -0 32768 1:0.00011785849 2:0.82766516 3:0.016721708 4:0.56097305 
-32768 -0 32768 1:0.0070182791 2:0.54771044 3:0.74972447 4:0.37131823 
-32768 -32768 32768 1:0.00037491613 2:0.20540576 3:0.96871181 4:0.13930457 
-0 -0 32768 1:0.00068439822 2:0.698551 3:0.53614384 4:0.47389431 
-0 -0 32768 1:0.0052191027 2:0.8205056 3:0.12930462 4:0.55679766 
-0 -0 32768 1:0.00062885065 2:0.82117466 3:0.12227499 4:0.55742319 
-0 -0 32768 1:-0.00026109826 2:0.82163979 3:0.11653315 4:0.55796776 
-0 -0 32768 1:0.0013131477 2:0.82138676 3:0.11863647 4:0.55789556 
-0 -0 32768 1:-0.0008535534 2:0.82343378 3:0.095437951 4:0.55932789 
-0 -0 32768 1:-0.0030811327 2:0.82500607 3:0.071963663 4:0.5605147 
-0 -0 32768 1:-0.001676064 2:0.82169418 3:0.11399196 4:0.55840997 
-0 -0 32768 1:-0.00096342355 2:0.81965784 3:0.13365864 4:0.55704172 
-0 -0 32768 2:0.82711823 4:0.56202796 
-0 -0 32768 1:-0.0023707772 2:0.77430217 3:0.35181778 4:0.52599884 
-0 -0 32768 1:-0.0057969343 2:0.73052833 3:0.46898984 4:0.49632981 
-0 -0 32768 1:0.00018417672 2:0.66525181 3:0.59426613 4:0.45198204 
-0 -0 32768 1:-0.00044415313 2:0.82119435 3:0.11990734 4:0.55790848 
-0 -0 17063.1474125464 1:-0.00033702746 2:0.82714002 3:0.010350996 4:0.56190047 
-0 -0 32768 1:-0.0042313178 2:0.7980389 3:0.26347622 4:0.54193753 
-0 -0 32768 1:-1.1195759e-005 2:0.82726074 3:0.0044399483 4:0.56180064 
-32768 -32768 32768 1:-0.0054713218 2:0.82444932 3:0.082203642 4:0.55990709 
-0 -0 30315.54276253553 1:-0.00013295797 2:0.77906249 3:0.33634147 4:0.52908982 
-0 -30620.29743617326 32768 1:-0.0074843952 2:0.79378618 3:0.28128707 4:0.53918927 
-0 -0 32768 1:0.00045824539 2:0.73838445 3:0.45076865 4:0.50159329 
-0 -0 10067.94402082174 1:0.0035456285 2:0.80937963 3:0.20645872 4:0.54978799 
-0 -0 32768 2:0.82693597 4:0.5622961 
-32768 -0 32768 1:4.624285e-005 2:0.37855147 3:0.88906576 4:0.25741184 
-0 -0 32768 1:-0.00083035173 2:0.60593176 3:0.68047446 4:0.4120686 
-0 -0 32768 1:-0.0017683792 2:0.82133547 3:0.11622429 4:0.55847725 
-0 -0 26874.79131425055 1:-0.0012306295 2:0.82254321 3:0.10341321 4:0.55921987 
-0 -0 32768 1:-0.0023681611 2:0.73572565 3:0.45672196 4:0.50010721 
-32768 -32768 32768 2:0.82547063 4:0.56444508 
-3706.194990023682 -32768 32768 2:0.82577641 3:0.00011685464 4:0.56399762 
-27198.80555060914 -32768 32768 1:0.00071711813 2:0.23339854 3:0.9592226 4:0.15942589 
-32768 -0 0 1:0.0061449416 2:0.53229514 3:0.7645172 4:0.36350733 
-0 -0 4276.214439717648 1:0.0016774989 2:0.41102209 3:0.86730489 4:0.28078507 
-32768 -0 0 1:-0.0057053487 2:0.66393433 3:0.59395989 4:0.45427997 
-32768 -32768 0 1:0.00146856 2:0.65997979 3:0.60028594 4:0.45175359 
-29637.02997452709 -7616.057899526669 0 1:0.00039037658 2:0.81786044 3:0.13306778 4:0.55981882 
-32768 -32768 13655.05660330083 1:0.015803642 2:0.76091057 3:0.38654588 4:0.52091039 
-32768 -0 4.324259967017512 1:0.0022188977 2:0.63653412 3:0.63635485 4:0.43574292 
-32768 -32768 0 1:-0.0012263128 2:0.8231341 3:0.070728622 4:0.56342365 
-32768 -32768 0 1:-0.0012274804 2:0.82495228 3:0.028215521 4:0.56449633 
-32768 -32768 32768 1:-0.0023700045 2:0.8237759 3:0.061647389 4:0.5635488 
-32768 -0 0 1:-0.0030021847 2:0.80322938 3:0.23030958 4:0.54933692 
-2396.793519668918 -0 0 1:-0.00050325602 2:0.82411771 3:0.057767815 4:0.56346484 
-32768 -32768 0 1:-0.0017422448 2:0.82355641 3:0.068929798 4:0.56302796 
-32768 -32768 0 1:0.001449117 2:0.77634803 3:0.33982314 4:0.53085014 
-32768 -32768 0 1:-0.0020260176 2:0.76159329 3:0.38574205 4:0.5207443 
-0 -19039.77150735308 0 1:0.00062475337 2:0.82450527 3:0.048305538 4:0.5637883 
-32768 -166.2705888185768 0 1:0.0088470919 2:0.76094507 3:0.38728777 4:0.52047336 
-32768 -17251.7199433406 32768 1:-0.012144753 2:0.62718747 3:0.65003186 4:0.42889039 
-32768 -0 0 1:-0.0010258826 2:0.69173296 3:0.54569377 4:0.47299342 
-32768 -32768 0 1:-0.0013614645 2:0.82516031 3:0.02856282 4:0.56417442 
-32768 -32768 0 2:0.82552245 3:0.0047920908 4:0.56434893 
-0 -0 4603.0850285243 1:-0.0041081856 2:0.62822462 3:0.64917178 4:0.4288274 
-0 -0 32768 1:-0.00017998236 2:0.43680709 3:0.84873645 4:0.2980704 
-0 -0 26651.68150195313 1:-0.00036919366 2:0.72861343 3:0.47264614 4:0.49570955 
-0 -0 32768 1:-0.0028342896 2:0.75465697 3:0.40860619 4:0.51334764 
-0 -0 32768 1:-0.00020524019 2:0.82681757 3:0.0041647408 4:0.56245472 
-0 -0 32768 1:-0.0038138543 2:0.78431876 3:0.3163876 4:0.5335995 
-0 -0 14944.83351148278 2:0.82664187 4:0.56272838 
-26761.73420392735 -32768 32768 1:-0.0065191772 2:0.0042850236 3:0.99996533 4:0.0029103299 
-32768 -32768 32768 1:-8.0948806e-006 2:0.0025701481 3:0.99999517 4:0.0017461162 
-0 -0 32768 1:-0.0013815523 2:0.8270045 3:0.01379243 4:0.5620244 
-19589.26840347608 -32768 32768 1:-0.0041159254 2:0.38644245 3:0.88405282 4:0.26286099 
-0 -0 32768 1:-0.00091803718 2:0.62598471 3:0.65331906 4:0.42581275 
-0 -0 32768 1:-0.0020128705 2:0.82672074 3:0.017137393 4:0.56234783 
-32768 -16397.26650568829 32768 1:-0.0063543342 2:0.35227946 3:0.90466938 4:0.23964998 
-0 -0 32768 1:-0.00022181591 2:0.57527441 3:0.71826418 4:0.39135135 
-0 -32768 32768 1:-0.0066762729 2:0.77230708 3:0.35722408 4:0.52525057 
-0 -0 32768 1:-0.0046182027 2:0.75786091 3:0.39983706 4:0.51551513 
-0 -0 32768 1:0.0035529072 2:0.81785024 3:0.14676396 4:0.55638899 
-0 -0 32768 2:0.82684941 4:0.56242337 
-32768 -32768 32768 1:-0.00019725051 2:0.32180164 3:0.92115776 4:0.2188882 
-32768 -0 32768 1:0.0024440917 2:0.41312541 3:0.86623889 4:0.2809833 
-0 -0 32768 1:-0.0032190984 2:0.81954937 3:0.13266889 4:0.55742931 
-0 -0 32768 1:-0.0031994276 2:0.77764328 3:0.34019551 4:0.5287038 
-0 -0 32768 1:-0.0062590137 2:0.71993516 3:0.49200923 4:0.48947023 
-0 -0 32768 1:-0.0010774265 2:0.7233149 3:0.48475061 4:0.4917634 
-0 -0 32768 1:-0.0033468026 2:0.82209131 3:0.10786175 4:0.55903535 
-29282.82593519086 -32768 32768 1:-0.0085191897 2:0.5666571 3:0.72821919 4:0.38538809 
-0 -0 32768 1:-0.0021101789 2:0.53626147 3:0.76125009 4:0.3645785 
-0 -0 32768 1:-0.002928805 2:0.54459832 3:0.75258988 4:0.37015209 
-0 -0 32768 1:-0.001743771 2:0.56316858 3:0.73235731 4:0.38274128 
-32768 -30725.23478446978 32768 1:-0.0037851619 2:0.52488164 3:0.77280334 4:0.3567351 
-32768 -0 32768 1:-0.0013818672 2:0.50950948 3:0.78765007 4:0.34641818 
-0 -0 32768 1:-0.0052709325 2:0.76589587 3:0.37704797 4:0.52077881 
-0 -0 32768 1:0.00089878484 2:0.74496836 3:0.43404976 4:0.50657886 
-0 -32768 0 2:0.82618637 4:0.56339691 
-32768 -32768 32768 1:-0.0045754274 2:0.0024016206 3:0.99998531 4:0.0016385161 
-32768 -32768 32768 1:-6.6924611e-006 2:0.0024007048 3:0.99999578 4:0.0016380858 
-0 -32768 0 1:-0.00077956274 2:0.76411655 3:0.37969625 4:0.52149405 
-18743.95805487489 -32768 32768 1:-0.0013899334 2:0.1742679 3:0.97748414 4:0.11896855 
-32768 -32768 32768 1:0.0023342711 2:0.1986549 3:0.97064346 4:0.13558044 
-0 -32768 32768 1:-0.0027285673 2:0.36984103 3:0.89411505 4:0.25252416 
-0 -32768 0 1:0.00044048018 2:0.77307441 3:0.35162619 4:0.52793446 
-32768 -0 0 2:0.80008769 3:0.24703149 4:0.54665815 
-26092.4816514422 -0 0 1:0.00013458937 2:0.80173917 3:0.23904756 4:0.54778696 
-0 -32768 0 1:0.0026359373 2:0.81996877 3:0.11637855 4:0.56044653 
-22318.94437449759 -32768 0 1:0.0017337653 2:0.82509221 3:0.02628006 4:0.5643839 
-32768 -17888.36448135496 0 1:0.0055406392 2:0.81121039 3:0.18674395 4:0.55410622 
-32540.17327573873 -32768 0 1:0.00032125409 2:0.79049899 3:0.28910351 4:0.53993556 
-0 -31303.26200461877 0 1:0.0010977217 2:0.82560093 3:0.0088894368 4:0.56418337 
-32768 -0 0 1:0.0073666611 2:0.79178428 3:0.28339455 4:0.54102764 
-32768 -32768 0 1:0.00025474569 2:0.82567123 3:0.0041058179 4:0.56413659 
-0 -31770.42040669303 32768 1:-0.0011649275 2:0.47345206 3:0.81942103 4:0.3230959 
-32768 -0 4612.299265746383 1:0.0038466193 2:0.5809991 3:0.71087614 4:0.39633365 
-0 -32768 0 1:-0.003555108 2:0.79194714 3:0.28491826 4:0.54002654 
-0 -0 32768 1:0.00067084319 2:0.63698958 3:0.63674175 4:0.43451555 
-32768 -32768 0 1:-0.0026656445 2:0.74149946 3:0.44047421 4:0.5061165 
-9302.671828281355 -0 0 1:0.0042360278 2:0.8122417 3:0.18053505 4:0.55466437 
-0 -0 5913.539779564662 1:0.001664183 2:0.68352098 3:0.56093544 4:0.46706288 
-5573.770876008653 -32768 32768 1:0.010256228 2:0.70006954 3:0.5300861 4:0.47833689 
-32768 -24459.05315885803 0 1:0.00036732547 2:0.72581326 3:0.47660137 4:0.49603035 
-0 -32768 32768 1:0.004169931 2:0.70802655 3:0.51427879 4:0.48394044 
-32768 -0 32768 1:0.0027841538 2:0.64486004 3:0.62439287 4:0.44077355 
-24145.37004870945 -32768 -32768 1:0.0040834004 2:0.6982466 3:0.52022731 4:0.49173017 
-0 -32768 -0 1:0.0002837077 2:0.76971197 3:0.33722638 4:0.5420533 
-32768 -32768 -0 1:0.00042863812 2:0.81756829 3:0.011701255 4:0.57571259 
-32768 -0 -0 1:0.0013589035 2:0.81608522 3:0.06339821 4:0.57444211 
-32768 -32768 -0 1:-0.00095027446 2:0.81539412 3:0.075540963 4:0.57395565 
-0 -32768 -32768 1:-0.0024901081 2:0.39214973 3:0.87749506 4:0.27607031 
-0 -32768 -32768 1:-0.00084112548 2:0.56711283 3:0.72041013 4:0.39923873 
-32768 -32768 -0 1:0.00013998705 2:0.81669403 3:0.049413731 4:0.57495141 
-32768 -32768 -0 1:-0.00083250041 2:0.81707945 3:0.038513202 4:0.57523665 
-32768 -32768 -0 1:0.00032233152 2:0.81745283 3:0.02444416 4:0.57547655 
-32768 -32768 -0 1:-2.1336571e-005 2:0.81724924 3:0.033630699 4:0.57530223 
-32768 -32768 -0 1:0.00077779693 2:0.81750166 3:0.022494788 4:0.57548624 
-32768 -32768 -0 1:0.00040112837 2:0.81727219 3:0.032127131 4:0.57535541 
-32768 -32768 -0 1:0.00071816436 2:0.81765479 3:0.011670034 4:0.57559008 
-0 -32768 -0 1:0.0021765032 2:0.81223476 3:0.11558832 4:0.57175983 
-0 -32768 -32768 1:-0.00026407419 2:0.69619464 3:0.5249929 4:0.48958697 
-0 -0 -32768 1:-0.0015402363 2:0.81233621 3:0.15770145 4:0.56146038 
-0 -32768 -0 1:-0.10882125 2:0.13142524 3:0.98129158 4:0.089174952 
-0 -32768 -0 1:-0.026918465 2:0.018856085 3:0.99937802 4:0.012783235 
-32768 -32768 -0 1:-0.00042113973 2:0.018126451 3:0.99976046 4:0.012258982 
-0 -32768 -0 1:-0.015999934 2:0.04677274 3:0.99828591 4:0.031329647 
-0 -32768 -0 1:-0.0053316194 2:0.063651377 3:0.99710951 4:0.041142366 
-0 -32768 -0 1:-0.011594471 2:0.023190603 3:0.99955332 4:0.014863559 
-0 -32768 -0 1:-0.0017628215 2:0.017929138 3:0.99977343 4:0.011336858 
-32768 -0 -0 1:-0.007546039 2:0.23951899 3:0.95910488 4:0.1506371 
-32768 -0 -0 1:-0.001976603 2:0.073635624 3:0.99624449 4:0.045506175 
-32768 -0 -0 1:-0.015598543 2:0.13140793 3:0.98824366 4:0.076570928 
-25721.54676896239 -0 -0 1:0.0043387869 2:0.087606231 3:0.99496828 4:0.048419543 
-32768 -0 -32768 2:0.81963244 3:0.04029285 4:0.57147104 
-32768 -0 -0 1:-0.0015357591 2:0.81849051 3:0.066813952 4:0.57061969 
-32768 -0 -32768 1:-0.001243903 2:0.8184811 3:0.067499041 4:0.57055325 
-32768 -0 -32768 1:-0.0010442274 2:0.81931341 3:0.05016609 4:0.57114605 
-32768 -32768 -32768 1:-0.0020781647 2:0.82017496 3:0.022827717 4:0.5716534 
-32768 -32768 -20723.9577357234 1:-0.0026017601 2:0.82027406 3:0.018213052 4:0.57167472 
-27157.34598329819 -0 -0 1:-0.0046142524 2:0.81778783 3:0.074454571 4:0.57066479 
-32768 -0 -0 1:-0.00097077462 2:0.81791805 3:0.072383112 4:0.57076248 
-1430.422169944251 -32768 -13330.58109032039 1:-0.0088579177 2:0.80421049 3:0.19566452 4:0.56114385 
-0 -32768 -0 1:-0.0015598222 2:0.80991399 3:0.15711149 4:0.56511315 
-0 -32768 -0 1:-0.0079371068 2:0.81083861 3:0.1497903 4:0.56572133 
-32768 -32768 -32768 1:-0.0019473951 2:0.80533809 3:0.18915072 4:0.56182629 
-0 -32768 -0 1:-0.007261765 2:0.81338689 3:0.1279216 4:0.56743731 
-32768 -0 -0 1:-0.0047525168 2:0.81826817 3:0.067584212 4:0.57083009 
-32768 -32768 -0 1:-0.0052019991 2:0.81973364 3:0.032519367 4:0.57179734 
-0 -32768 -0 1:-0.0065238181 2:0.81541073 3:0.10753559 4:0.56876962 
-0 -32768 -0 1:-0.009871414 2:0.80913671 3:0.16375 4:0.56425728 
-0 -32768 -32768 1:-0.0055662617 2:0.81018906 3:0.15655827 4:0.56484707 
-0 -15738.43553194294 -0 1:-0.0095782946 2:0.8170724 3:0.089032807 4:0.5695385 
-0 -32768 -0 1:-0.020531847 2:0.025184987 3:0.99932176 4:0.017325713 
-0 -32768 -0 1:-0.0022792158 2:0.036699325 3:0.99900692 4:0.025162059 
-0 -7187.322301760659 -0 1:-0.027895974 2:0.76795699 3:0.36656372 4:0.52449491 
-32768 -0 -0 1:-0.018879376 2:0.66780771 3:0.59899157 4:0.4414584 
-0 -32768 -0 1:-0.01350299 2:0.11930831 3:0.98963551 4:0.078770265 
-32768 -0 -0 1:-0.0045861402 2:0.12842231 3:0.98815813 4:0.08384622 
-32768 -0 -0 1:-0.03407083 2:0.80327049 3:0.2991527 4:0.51390988 
-0 -32768 -0 1:-0.0097104602 2:0.043522886 3:0.99861795 4:0.027814604 
-0 -32768 -0 1:-0.00054265443 2:0.029193734 3:0.99940753 4:0.018221539 
-0 -32768 -0 1:0.00023449452 2:0.020376914 3:0.99971214 4:0.012663385 
-0 -32768 -0 1:9.8213932e-005 2:0.030447729 3:0.99936714 4:0.018391369 
-0 -32768 -0 1:0.0013728388 2:0.0072371138 3:0.99993265 4:0.0089683904 
-32768 -32768 -0 2:0.82012363 4:0.57218636 
-0 -0 -32768 1:0.0029430715 2:0.81778754 3:0.12248382 4:0.56232783 
-0 -0 -32768 1:0.00072160404 2:0.81106295 3:0.17754093 4:0.55736486 
-32768 -0 -32768 1:0.00054265 2:0.82420303 3:0.016148063 4:0.56606387 
-32768 -0 -32768 2:0.82446938 3:0.014804814 4:0.56571288 
-32768 -32768 -32768 1:0.0056376083 2:0.75599104 3:0.39950785 4:0.5184971 
-32768 -0 -32768 1:0.0030815676 2:0.80887967 3:0.19537746 4:0.55455552 
-0 -0 -32768 1:0.00036444695 2:0.82288668 3:0.068894885 4:0.56401319 
-0 -32768 -32768 1:-0.0080523525 2:0.43559331 3:0.84858624 4:0.30015833 
-0 -32768 -32768 1:0.00013293029 2:0.65728985 3:0.60223706 4:0.45307897 
-0 -32768 -32768 1:-0.013371128 2:0.80566313 3:0.2071204 4:0.55482365 
-0 -32768 -0 2:0.83384293 4:0.55200179 
-0 -32768 -0 1:-0.014597922 2:0.0080054196 3:0.99984773 4:0.0052271252 
-32768 -32768 -32768 1:-0.0036799891 2:0.010423851 3:0.99991587 4:0.0067859305 
-32768 -32768 -0 1:-0.0046478771 2:0.079683069 3:0.99549724 4:0.05112966 
-26606.43298670734 -0 -0 1:-0.047272145 2:0.47212579 3:0.8271325 4:0.30118833 
-32768 -0 -0 1:-0.011878705 2:0.20078281 3:0.97123439 4:0.12747129 
-32768 -0 -0 1:-0.00069260959 2:0.0017172374 3:0.9999978 4:0.00098314339 
-32768 -0 -0 1:0.01068597 2:0.14394039 3:0.98649548 4:0.077418577 
-0 -32768 -0 1:0.010997748 2:0.007258309 3:0.99990449 4:0.0041679677 
-32768 -32768 -0 1:0.0021575158 2:0.0070338357 3:0.99996196 4:0.0046848474 
-0 -32768 -0 1:0.036237685 2:0.0023609293 3:0.99933908 4:0.0016303421 
-0 -32768 -32768 1:-0.0039953588 2:0.0029925348 3:0.99998402 4:0.0026533086 
-0 -32768 -0 1:0.042843741 2:0.013241957 3:0.99895729 4:0.0085676873 
-0 -32768 -0 1:0.0043807178 2:0.0072096742 3:0.9999536 4:0.0046505258 
-4245.421655670022 -0 -11836.45904861085 1:0.0080083411 2:0.81786403 3:0.073447282 4:0.57064857 
-32768 -0 -0 1:0.0078472616 2:0.81821443 3:0.064841862 4:0.57119095 
-32768 -0 -14475.69649365214 1:0.013600467 2:0.80376019 3:0.19706208 4:0.56120506 
-32768 -0 -0 1:0.0063332172 2:0.819048 3:0.0433797 4:0.5720476 
-32768 -0 -0 1:0.0046389645 2:0.8194377 3:0.031379096 4:0.57228987 
-32768 -13893.54064808805 -0 1:0.0028085708 2:0.81948412 3:0.030676649 4:0.57227339 
-32768 -0 -0 1:0.0037900706 2:0.81836957 3:0.062178086 4:0.57130619 
-32768 -0 -0 1:-0.0017952183 2:0.81780664 3:0.074192073 4:0.57068784 
-32768 -32768 -32768 1:-0.0025901569 2:0.82235417 3:0.0078575044 4:0.56891578 
-0 -32768 -0 1:-0.068030753 2:0.18009785 3:0.97379521 4:0.12107629 
-0 -32768 -0 1:0.030749687 2:0.0064281171 3:0.99948748 4:0.0061578453 
-0 -32768 -0 1:-0.0019980494 2:0.015118879 3:0.99977318 4:0.014866697 
-0 -32768 -0 1:-0.0099762153 2:0.002782342 3:0.99994422 4:0.0020717218 
-32768 -0 -32768 1:-0.00044359359 2:0.69263253 3:0.54452231 4:0.47302795 
-32768 -0 -32768 1:-0.00045308834 2:0.71320407 3:0.50406501 4:0.48709159 
-32768 -0 -32768 1:4.4776075e-005 2:0.82566242 3:0.015785452 4:0.56394361 
-0 -0 -32768 1:-0.0018487617 2:0.82408004 3:0.066532036 4:0.56254969 
-32768 -0 -32768 1:-0.00067773393 2:0.81222591 3:0.18123427 4:0.5544752 
-0 -32768 -0 1:-0.0079700533 2:0.0061102205 3:0.9999411 4:0.0041167791 
-0 -32768 -0 1:-0.0011083648 2:0.021995998 3:0.99965068 4:0.014610367 
-32768 -0 -0 2:0.16805641 3:0.98017237 4:0.10497227 
-32768 -0 -0 1:-0.023682546 2:0.22226607 3:0.96586919 4:0.13089554 
-32768 -0 -0 1:0.0078998752 2:0.33189134 3:0.92378099 4:0.1908256 
-32768 -0 -0 1:-0.0045150168 2:0.3109535 3:0.93523075 4:0.16920689 
-0 -32768 -0 1:0.014274746 2:0.0055323383 3:0.99986825 4:0.0053953945 
-0 -13410.91620355077 -0 1:0.082124065 2:0.0048296117 3:0.99660095 4:0.0043416725 
-0 -32768 -0 1:-0.039618392 2:0.023459873 3:0.99879668 4:0.016888384 
-32768 -0 -0 1:-0.0028641742 2:0.00020271988 3:0.99999588 4:-1.9295888e-005 
-0 -32768 -0 1:-0.0086870457 2:0.17409642 3:0.97739576 4:0.11963487 
-0 -0 -32768 1:-0.0013915865 2:0.58836706 3:0.70019185 4:0.40441766 
-0 -0 -32768 1:-0.0065203232 2:0.82305266 3:0.046750642 4:0.56600017 
-0 -32768 -32768 1:-0.024168744 2:0.78220993 3:0.31356666 4:0.53780986 
-0 -32768 -0 1:-0.054880053 2:0.55069967 3:0.74186582 4:0.37862008 
-0 -0 -32768 1:-0.015008037 2:0.53923626 3:0.7560152 4:0.37072905 
-0 -32768 -32768 1:-0.009332169 2:0.25000486 3:0.95277046 4:0.1721596 
-0 -0 -32768 1:-0.0057351929 2:0.74977612 3:0.41404624 4:0.51610909 
-7745.115218823552 -32768 -32768 1:-0.0023811599 2:0.26341282 3:0.94791806 4:0.17905127 
-0 -32768 -0 1:-0.0005456559 2:0.0088500071 3:0.99994695 4:0.0052420221 
-0 -32768 -0 1:-0.0026399034 2:0.0081158625 3:0.99995204 4:0.0048045714 
-0 -32768 -0 1:0.017555264 2:0.0021714782 3:0.9998419 4:0.0018113355 
-32768 -14522.336483773 -32768 2:0.82522253 4:0.56480774 
-32768 -32768 -0 2:0.01361523 3:0.99986388 4:0.0093194268 
-0 -32768 -32768 1:-0.003998818 2:0.77851011 3:0.33158657 4:0.53287556 
-0 -0 -32768 1:-0.0010037041 2:0.7379045 3:0.44769444 4:0.50504023 
-32768 -0 -32768 1:-0.00052093446 2:0.82519446 3:0.01069695 4:0.56474721 
-32768 -0 -32768 1:-0.00060522041 2:0.82450016 3:0.0046775844 4:0.56584206 
-0 -21586.65398987501 -32768 1:-0.0047699245 2:0.64298529 3:0.62594819 4:0.44128905 
-32768 -0 -32768 1:-0.0002996036 2:0.70246597 3:0.52351373 4:0.48215646 
-32768 -0 -32768 1:-0.0001249732 2:0.82405764 3:0.036209039 4:0.56534758 
-0 -0 -32768 1:-0.001345847 2:0.82354588 3:0.055373764 4:0.56453886 
-0 -0 -32768 1:-0.0074864679 2:0.7550367 3:0.40405542 4:0.51633589 
-32768 -32768 -32768 1:0.0084670955 2:0.37537759 3:0.89073604 4:0.25614309 
-32768 -32768 -32768 1:0.0093710877 2:0.65763571 3:0.60553699 4:0.44805403 
-0 -0 -32768 1:0.0051129455 2:0.82137646 3:0.11231348 4:0.55919608 
-32768 -0 -32768 1:-0.0036176665 2:0.81464665 3:0.17297458 4:0.55354994 
-0 -32768 -0 1:-0.013330039 2:0.11254429 3:0.99068747 4:0.075461428 
-32768 -32768 -0 1:-0.010236662 2:0.18891577 3:0.97381852 4:0.12602987 
-32768 -0 -0 1:-0.002576963 2:0.14473568 3:0.98545663 4:0.088995332 
-0 -9975.303643106996 -0 1:-0.084923266 2:0.24501972 3:0.92960467 4:0.26189412 
-0 -32768 -0 1:-0.032684794 2:0.0050911627 3:0.99944269 4:0.0044822337 
-0 -32768 -0 1:0.017845818 2:0.0040764802 3:0.999826 4:0.0035886437 
-0 -32768 -0 1:0.0056213923 2:0.0021809839 3:0.99997976 4:0.0020295963 
-0 -32768 -0 1:0.0095683041 2:0.020474807 3:0.99956466 4:0.018966051 
-0 -32768 -0 1:0.0061351428 2:0.10960275 3:0.98877573 4:0.1013516 
-12712.47484905269 -24940.56079331818 -0 1:0.023771063 2:0.68818479 3:0.36451392 4:0.62687018 
-0 -5122.933699120707 -0 1:0.08601965 2:0.33323618 3:0.87467247 4:0.34132438 
-0 -32768 -0 1:-0.020261578 2:0.017354677 3:0.99952097 4:0.015688057 
-0 -32768 -0 2:0.023266201 3:0.99951148 4:0.020868316 
-32768 -32768 -0 1:0.014734258 2:0.0065038375 3:0.99985323 4:0.005841641 
-32768 -32768 -0 1:-9.2018399e-006 2:0.0068011646 3:0.9999587 4:0.0060277498 
-0 -32768 -0 1:-0.010619871 2:0.075556723 3:0.99479378 4:0.067555425 
-0 -32768 -0 1:0.0086377203 2:0.063161745 3:0.99619795 4:0.059377003 
-0 -0 -32768 2:0.82953997 4:0.55844734 
-32768 -0 -32768 1:0.0032146394 2:0.37687252 3:0.89083477 4:0.25371279 
-32768 -0 -32768 1:0.0092509578 2:0.57509568 3:0.72064219 4:0.38711008 
-4293.463122839491 -0 -32768 1:0.0017128784 2:0.58361756 3:0.71069994 4:0.39280173 
-32768 -32768 -32768 2:0.82916788 3:0.028629492 4:0.55826605 
-32768 -32768 -14815.0644100731 1:0.0058505401 2:0.20363461 3:0.96938098 4:0.13711032 
-32768 -0 -32768 1:0.0022767442 2:0.37935284 3:0.88930193 4:0.25539834 
-32768 -0 -32768 1:0.0018903499 2:0.81004866 3:0.21540275 4:0.54536158 
-32768 -0 -32768 1:0.005279077 2:0.81686079 3:0.17375804 4:0.55001702 
-32768 -19289.97410064209 -32768 1:0.0038748736 2:0.7462907 3:0.43656227 4:0.5024426 
-32768 -0 -32768 1:0.00017303098 2:0.74157849 3:0.44816183 4:0.49921167 
-0 -0 -32768 1:0.0015133558 2:0.82276611 3:0.12918516 4:0.55350233 
-32768 -0 -32768 1:-0.00097821546 2:0.81888856 3:0.16271812 4:0.55040293 
-0 -32768 -0 1:-0.0044512178 2:0.02939692 3:0.9993673 4:0.019519323 
-32768 -32768 -32768 1:-0.0015688506 2:0.10126894 3:0.99260026 4:0.066984113 
-32768 -0 -0 1:-0.014998378 2:0.20160898 3:0.97029513 4:0.13287674 
-32768 -0 -0 1:-0.0031541548 2:0.22052644 3:0.96467033 4:0.14411557 
-32768 -0 -0 2:0.090482906 3:0.99430247 4:0.056351027 
-0 -32768 -0 1:-9.3115807e-005 2:0.0060490076 3:0.99997494 4:0.0036776891 
-0 -32768 -0 1:0.0026915641 2:0.02657174 3:0.99951978 4:0.015713168 
-0 -0 -32768 2:0.83136333 4:0.55572927 
